digraph Tree {
node [shape=box, style="filled, rounded", color="black", fontname=helvetica] ;
edge [fontname=helvetica] ;
0 [label="YEAR <= 1986.5\ngini = 0.484\nsamples = 35339\nvalue = [14487, 20852]\nclass = 1", fillcolor="#c3e1f7"] ;
1 [label="DEPTH <= 130.5\ngini = 0.345\nsamples = 8238\nvalue = [1823, 6415]\nclass = 1", fillcolor="#71b9ec"] ;
0 -> 1 [labeldistance=2.5, labelangle=45, headlabel="True"] ;
2 [label="REF <= 8.5\ngini = 0.321\nsamples = 7266\nvalue = [1461, 5805]\nclass = 1", fillcolor="#6bb6ec"] ;
1 -> 2 ;
3 [label="DEPTH <= 0.5\ngini = 0.478\nsamples = 504\nvalue = [199, 305]\nclass = 1", fillcolor="#baddf6"] ;
2 -> 3 ;
4 [label="YEAR <= 1913.5\ngini = 0.489\nsamples = 317\nvalue = [182, 135]\nclass = 0", fillcolor="#f8decc"] ;
3 -> 4 ;
5 [label="YEAR <= 1847.5\ngini = 0.389\nsamples = 155\nvalue = [114, 41]\nclass = 0", fillcolor="#eeae80"] ;
4 -> 5 ;
6 [label="MONTH <= 2.5\ngini = 0.48\nsamples = 20\nvalue = [8, 12]\nclass = 1", fillcolor="#bddef6"] ;
5 -> 6 ;
7 [label="gini = 0.0\nsamples = 5\nvalue = [5, 0]\nclass = 0", fillcolor="#e58139"] ;
6 -> 7 ;
8 [label="MONTH <= 9.0\ngini = 0.32\nsamples = 15\nvalue = [3, 12]\nclass = 1", fillcolor="#6ab6ec"] ;
6 -> 8 ;
9 [label="gini = 0.0\nsamples = 11\nvalue = [0, 11]\nclass = 1", fillcolor="#399de5"] ;
8 -> 9 ;
10 [label="LONG <= 730.0\ngini = 0.375\nsamples = 4\nvalue = [3, 1]\nclass = 0", fillcolor="#eeab7b"] ;
8 -> 10 ;
11 [label="gini = 0.0\nsamples = 3\nvalue = [3, 0]\nclass = 0", fillcolor="#e58139"] ;
10 -> 11 ;
12 [label="gini = 0.0\nsamples = 1\nvalue = [0, 1]\nclass = 1", fillcolor="#399de5"] ;
10 -> 12 ;
13 [label="DATE <= 10.5\ngini = 0.337\nsamples = 135\nvalue = [106, 29]\nclass = 0", fillcolor="#eca36f"] ;
5 -> 13 ;
14 [label="MONTH <= 10.5\ngini = 0.117\nsamples = 48\nvalue = [45, 3]\nclass = 0", fillcolor="#e78946"] ;
13 -> 14 ;
15 [label="gini = 0.0\nsamples = 37\nvalue = [37, 0]\nclass = 0", fillcolor="#e58139"] ;
14 -> 15 ;
16 [label="YEAR <= 1876.5\ngini = 0.397\nsamples = 11\nvalue = [8, 3]\nclass = 0", fillcolor="#efb083"] ;
14 -> 16 ;
17 [label="LONG <= 485.0\ngini = 0.444\nsamples = 3\nvalue = [1, 2]\nclass = 1", fillcolor="#9ccef2"] ;
16 -> 17 ;
18 [label="gini = 0.0\nsamples = 1\nvalue = [0, 1]\nclass = 1", fillcolor="#399de5"] ;
17 -> 18 ;
19 [label="gini = 0.5\nsamples = 2\nvalue = [1, 1]\nclass = 0", fillcolor="#ffffff"] ;
17 -> 19 ;
20 [label="YEAR <= 1899.5\ngini = 0.219\nsamples = 8\nvalue = [7, 1]\nclass = 0", fillcolor="#e99355"] ;
16 -> 20 ;
21 [label="gini = 0.0\nsamples = 5\nvalue = [5, 0]\nclass = 0", fillcolor="#e58139"] ;
20 -> 21 ;
22 [label="gini = 0.444\nsamples = 3\nvalue = [2, 1]\nclass = 0", fillcolor="#f2c09c"] ;
20 -> 22 ;
23 [label="LONG <= 385.0\ngini = 0.419\nsamples = 87\nvalue = [61, 26]\nclass = 0", fillcolor="#f0b78d"] ;
13 -> 23 ;
24 [label="YEAR <= 1890.5\ngini = 0.105\nsamples = 18\nvalue = [17, 1]\nclass = 0", fillcolor="#e78845"] ;
23 -> 24 ;
25 [label="gini = 0.0\nsamples = 15\nvalue = [15, 0]\nclass = 0", fillcolor="#e58139"] ;
24 -> 25 ;
26 [label="YEAR <= 1893.5\ngini = 0.444\nsamples = 3\nvalue = [2, 1]\nclass = 0", fillcolor="#f2c09c"] ;
24 -> 26 ;
27 [label="gini = 0.0\nsamples = 1\nvalue = [0, 1]\nclass = 1", fillcolor="#399de5"] ;
26 -> 27 ;
28 [label="gini = 0.0\nsamples = 2\nvalue = [2, 0]\nclass = 0", fillcolor="#e58139"] ;
26 -> 28 ;
29 [label="LONG <= 915.0\ngini = 0.462\nsamples = 69\nvalue = [44, 25]\nclass = 0", fillcolor="#f4c9aa"] ;
23 -> 29 ;
30 [label="LAT <= 252.0\ngini = 0.499\nsamples = 48\nvalue = [25, 23]\nclass = 0", fillcolor="#fdf5ef"] ;
29 -> 30 ;
31 [label="gini = 0.48\nsamples = 40\nvalue = [24, 16]\nclass = 0", fillcolor="#f6d5bd"] ;
30 -> 31 ;
32 [label="gini = 0.219\nsamples = 8\nvalue = [1, 7]\nclass = 1", fillcolor="#55abe9"] ;
30 -> 32 ;
33 [label="DATE <= 12.5\ngini = 0.172\nsamples = 21\nvalue = [19, 2]\nclass = 0", fillcolor="#e88e4e"] ;
29 -> 33 ;
34 [label="gini = 0.5\nsamples = 4\nvalue = [2, 2]\nclass = 0", fillcolor="#ffffff"] ;
33 -> 34 ;
35 [label="gini = 0.0\nsamples = 17\nvalue = [17, 0]\nclass = 0", fillcolor="#e58139"] ;
33 -> 35 ;
36 [label="LONG <= 875.0\ngini = 0.487\nsamples = 162\nvalue = [68, 94]\nclass = 1", fillcolor="#c8e4f8"] ;
4 -> 36 ;
37 [label="LONG <= 825.0\ngini = 0.499\nsamples = 84\nvalue = [44, 40]\nclass = 0", fillcolor="#fdf4ed"] ;
36 -> 37 ;
38 [label="LONG <= 85.0\ngini = 0.497\nsamples = 72\nvalue = [33, 39]\nclass = 1", fillcolor="#e1f0fb"] ;
37 -> 38 ;
39 [label="MONTH <= 11.5\ngini = 0.26\nsamples = 13\nvalue = [2, 11]\nclass = 1", fillcolor="#5dafea"] ;
38 -> 39 ;
40 [label="REF <= 6.5\ngini = 0.153\nsamples = 12\nvalue = [1, 11]\nclass = 1", fillcolor="#4ba6e7"] ;
39 -> 40 ;
41 [label="gini = 0.0\nsamples = 11\nvalue = [0, 11]\nclass = 1", fillcolor="#399de5"] ;
40 -> 41 ;
42 [label="gini = 0.0\nsamples = 1\nvalue = [1, 0]\nclass = 0", fillcolor="#e58139"] ;
40 -> 42 ;
43 [label="gini = 0.0\nsamples = 1\nvalue = [1, 0]\nclass = 0", fillcolor="#e58139"] ;
39 -> 43 ;
44 [label="DATE <= 1.5\ngini = 0.499\nsamples = 59\nvalue = [31, 28]\nclass = 0", fillcolor="#fcf3ec"] ;
38 -> 44 ;
45 [label="gini = 0.0\nsamples = 4\nvalue = [4, 0]\nclass = 0", fillcolor="#e58139"] ;
44 -> 45 ;
46 [label="LONG <= 775.0\ngini = 0.5\nsamples = 55\nvalue = [27, 28]\nclass = 1", fillcolor="#f8fcfe"] ;
44 -> 46 ;
47 [label="gini = 0.48\nsamples = 35\nvalue = [21, 14]\nclass = 0", fillcolor="#f6d5bd"] ;
46 -> 47 ;
48 [label="gini = 0.42\nsamples = 20\nvalue = [6, 14]\nclass = 1", fillcolor="#8ec7f0"] ;
46 -> 48 ;
49 [label="LAT <= 50.0\ngini = 0.153\nsamples = 12\nvalue = [11, 1]\nclass = 0", fillcolor="#e78c4b"] ;
37 -> 49 ;
50 [label="gini = 0.0\nsamples = 1\nvalue = [0, 1]\nclass = 1", fillcolor="#399de5"] ;
49 -> 50 ;
51 [label="gini = 0.0\nsamples = 11\nvalue = [11, 0]\nclass = 0", fillcolor="#e58139"] ;
49 -> 51 ;
52 [label="MONTH <= 10.5\ngini = 0.426\nsamples = 78\nvalue = [24, 54]\nclass = 1", fillcolor="#91c9f1"] ;
36 -> 52 ;
53 [label="LONG <= 935.0\ngini = 0.382\nsamples = 66\nvalue = [17, 49]\nclass = 1", fillcolor="#7ebfee"] ;
52 -> 53 ;
54 [label="DATE <= 28.5\ngini = 0.137\nsamples = 27\nvalue = [2, 25]\nclass = 1", fillcolor="#49a5e7"] ;
53 -> 54 ;
55 [label="LONG <= 895.0\ngini = 0.077\nsamples = 25\nvalue = [1, 24]\nclass = 1", fillcolor="#41a1e6"] ;
54 -> 55 ;
56 [label="gini = 0.444\nsamples = 3\nvalue = [1, 2]\nclass = 1", fillcolor="#9ccef2"] ;
55 -> 56 ;
57 [label="gini = 0.0\nsamples = 22\nvalue = [0, 22]\nclass = 1", fillcolor="#399de5"] ;
55 -> 57 ;
58 [label="LAT <= 265.0\ngini = 0.5\nsamples = 2\nvalue = [1, 1]\nclass = 0", fillcolor="#ffffff"] ;
54 -> 58 ;
59 [label="gini = 0.0\nsamples = 1\nvalue = [1, 0]\nclass = 0", fillcolor="#e58139"] ;
58 -> 59 ;
60 [label="gini = 0.0\nsamples = 1\nvalue = [0, 1]\nclass = 1", fillcolor="#399de5"] ;
58 -> 60 ;
61 [label="LONG <= 955.0\ngini = 0.473\nsamples = 39\nvalue = [15, 24]\nclass = 1", fillcolor="#b5daf5"] ;
53 -> 61 ;
62 [label="LAT <= 25.0\ngini = 0.497\nsamples = 26\nvalue = [14, 12]\nclass = 0", fillcolor="#fbede3"] ;
61 -> 62 ;
63 [label="gini = 0.0\nsamples = 2\nvalue = [0, 2]\nclass = 1", fillcolor="#399de5"] ;
62 -> 63 ;
64 [label="gini = 0.486\nsamples = 24\nvalue = [14, 10]\nclass = 0", fillcolor="#f8dbc6"] ;
62 -> 64 ;
65 [label="LAT <= 290.0\ngini = 0.142\nsamples = 13\nvalue = [1, 12]\nclass = 1", fillcolor="#49a5e7"] ;
61 -> 65 ;
66 [label="gini = 0.0\nsamples = 11\nvalue = [0, 11]\nclass = 1", fillcolor="#399de5"] ;
65 -> 66 ;
67 [label="gini = 0.5\nsamples = 2\nvalue = [1, 1]\nclass = 0", fillcolor="#ffffff"] ;
65 -> 67 ;
68 [label="YEAR <= 1931.0\ngini = 0.486\nsamples = 12\nvalue = [7, 5]\nclass = 0", fillcolor="#f8dbc6"] ;
52 -> 68 ;
69 [label="YEAR <= 1917.5\ngini = 0.278\nsamples = 6\nvalue = [5, 1]\nclass = 0", fillcolor="#ea9a61"] ;
68 -> 69 ;
70 [label="gini = 0.0\nsamples = 1\nvalue = [0, 1]\nclass = 1", fillcolor="#399de5"] ;
69 -> 70 ;
71 [label="gini = 0.0\nsamples = 5\nvalue = [5, 0]\nclass = 0", fillcolor="#e58139"] ;
69 -> 71 ;
72 [label="DATE <= 10.0\ngini = 0.444\nsamples = 6\nvalue = [2, 4]\nclass = 1", fillcolor="#9ccef2"] ;
68 -> 72 ;
73 [label="gini = 0.0\nsamples = 2\nvalue = [2, 0]\nclass = 0", fillcolor="#e58139"] ;
72 -> 73 ;
74 [label="gini = 0.0\nsamples = 4\nvalue = [0, 4]\nclass = 1", fillcolor="#399de5"] ;
72 -> 74 ;
75 [label="LONG <= 996.0\ngini = 0.165\nsamples = 187\nvalue = [17, 170]\nclass = 1", fillcolor="#4da7e8"] ;
3 -> 75 ;
76 [label="YEAR <= 1976.5\ngini = 0.142\nsamples = 182\nvalue = [14, 168]\nclass = 1", fillcolor="#49a5e7"] ;
75 -> 76 ;
77 [label="MONTH <= 2.5\ngini = 0.298\nsamples = 33\nvalue = [6, 27]\nclass = 1", fillcolor="#65b3eb"] ;
76 -> 77 ;
78 [label="gini = 0.0\nsamples = 2\nvalue = [2, 0]\nclass = 0", fillcolor="#e58139"] ;
77 -> 78 ;
79 [label="LAT <= 234.5\ngini = 0.225\nsamples = 31\nvalue = [4, 27]\nclass = 1", fillcolor="#56ace9"] ;
77 -> 79 ;
80 [label="gini = 0.0\nsamples = 13\nvalue = [0, 13]\nclass = 1", fillcolor="#399de5"] ;
79 -> 80 ;
81 [label="DEPTH <= 32.0\ngini = 0.346\nsamples = 18\nvalue = [4, 14]\nclass = 1", fillcolor="#72b9ec"] ;
79 -> 81 ;
82 [label="gini = 0.0\nsamples = 1\nvalue = [1, 0]\nclass = 0", fillcolor="#e58139"] ;
81 -> 82 ;
83 [label="LAT <= 239.5\ngini = 0.291\nsamples = 17\nvalue = [3, 14]\nclass = 1", fillcolor="#63b2eb"] ;
81 -> 83 ;
84 [label="gini = 0.0\nsamples = 1\nvalue = [1, 0]\nclass = 0", fillcolor="#e58139"] ;
83 -> 84 ;
85 [label="gini = 0.219\nsamples = 16\nvalue = [2, 14]\nclass = 1", fillcolor="#55abe9"] ;
83 -> 85 ;
86 [label="LAT <= 262.5\ngini = 0.102\nsamples = 149\nvalue = [8, 141]\nclass = 1", fillcolor="#44a3e6"] ;
76 -> 86 ;
87 [label="DATE <= 8.5\ngini = 0.044\nsamples = 89\nvalue = [2, 87]\nclass = 1", fillcolor="#3e9fe6"] ;
86 -> 87 ;
88 [label="LAT <= 231.5\ngini = 0.121\nsamples = 31\nvalue = [2, 29]\nclass = 1", fillcolor="#47a4e7"] ;
87 -> 88 ;
89 [label="LAT <= 227.5\ngini = 0.298\nsamples = 11\nvalue = [2, 9]\nclass = 1", fillcolor="#65b3eb"] ;
88 -> 89 ;
90 [label="gini = 0.0\nsamples = 9\nvalue = [0, 9]\nclass = 1", fillcolor="#399de5"] ;
89 -> 90 ;
91 [label="gini = 0.0\nsamples = 2\nvalue = [2, 0]\nclass = 0", fillcolor="#e58139"] ;
89 -> 91 ;
92 [label="gini = 0.0\nsamples = 20\nvalue = [0, 20]\nclass = 1", fillcolor="#399de5"] ;
88 -> 92 ;
93 [label="gini = 0.0\nsamples = 58\nvalue = [0, 58]\nclass = 1", fillcolor="#399de5"] ;
87 -> 93 ;
94 [label="LONG <= 966.0\ngini = 0.18\nsamples = 60\nvalue = [6, 54]\nclass = 1", fillcolor="#4fa8e8"] ;
86 -> 94 ;
95 [label="MONTH <= 3.5\ngini = 0.113\nsamples = 50\nvalue = [3, 47]\nclass = 1", fillcolor="#46a3e7"] ;
94 -> 95 ;
96 [label="DEPTH <= 72.5\ngini = 0.337\nsamples = 14\nvalue = [3, 11]\nclass = 1", fillcolor="#6fb8ec"] ;
95 -> 96 ;
97 [label="gini = 0.26\nsamples = 13\nvalue = [2, 11]\nclass = 1", fillcolor="#5dafea"] ;
96 -> 97 ;
98 [label="gini = 0.0\nsamples = 1\nvalue = [1, 0]\nclass = 0", fillcolor="#e58139"] ;
96 -> 98 ;
99 [label="gini = 0.0\nsamples = 36\nvalue = [0, 36]\nclass = 1", fillcolor="#399de5"] ;
95 -> 99 ;
100 [label="MONTH <= 8.5\ngini = 0.42\nsamples = 10\nvalue = [3, 7]\nclass = 1", fillcolor="#8ec7f0"] ;
94 -> 100 ;
101 [label="gini = 0.0\nsamples = 5\nvalue = [0, 5]\nclass = 1", fillcolor="#399de5"] ;
100 -> 101 ;
102 [label="DATE <= 25.0\ngini = 0.48\nsamples = 5\nvalue = [3, 2]\nclass = 0", fillcolor="#f6d5bd"] ;
100 -> 102 ;
103 [label="gini = 0.0\nsamples = 3\nvalue = [3, 0]\nclass = 0", fillcolor="#e58139"] ;
102 -> 103 ;
104 [label="gini = 0.0\nsamples = 2\nvalue = [0, 2]\nclass = 1", fillcolor="#399de5"] ;
102 -> 104 ;
105 [label="LAT <= 250.5\ngini = 0.48\nsamples = 5\nvalue = [3, 2]\nclass = 0", fillcolor="#f6d5bd"] ;
75 -> 105 ;
106 [label="gini = 0.0\nsamples = 2\nvalue = [0, 2]\nclass = 1", fillcolor="#399de5"] ;
105 -> 106 ;
107 [label="gini = 0.0\nsamples = 3\nvalue = [3, 0]\nclass = 0", fillcolor="#e58139"] ;
105 -> 107 ;
108 [label="YEAR <= 1977.5\ngini = 0.304\nsamples = 6762\nvalue = [1262, 5500]\nclass = 1", fillcolor="#66b3eb"] ;
2 -> 108 ;
109 [label="LONG <= 350.5\ngini = 0.215\nsamples = 3354\nvalue = [411, 2943]\nclass = 1", fillcolor="#55abe9"] ;
108 -> 109 ;
110 [label="YEAR <= 1892.5\ngini = 0.151\nsamples = 1558\nvalue = [128, 1430]\nclass = 1", fillcolor="#4ba6e7"] ;
109 -> 110 ;
111 [label="LONG <= 258.0\ngini = 0.387\nsamples = 198\nvalue = [52, 146]\nclass = 1", fillcolor="#80c0ee"] ;
110 -> 111 ;
112 [label="YEAR <= 1728.0\ngini = 0.498\nsamples = 81\nvalue = [38, 43]\nclass = 1", fillcolor="#e8f4fc"] ;
111 -> 112 ;
113 [label="gini = 0.0\nsamples = 8\nvalue = [0, 8]\nclass = 1", fillcolor="#399de5"] ;
112 -> 113 ;
114 [label="LONG <= 138.0\ngini = 0.499\nsamples = 73\nvalue = [38, 35]\nclass = 0", fillcolor="#fdf5ef"] ;
112 -> 114 ;
115 [label="LONG <= 82.5\ngini = 0.165\nsamples = 11\nvalue = [10, 1]\nclass = 0", fillcolor="#e88e4d"] ;
114 -> 115 ;
116 [label="gini = 0.5\nsamples = 2\nvalue = [1, 1]\nclass = 0", fillcolor="#ffffff"] ;
115 -> 116 ;
117 [label="gini = 0.0\nsamples = 9\nvalue = [9, 0]\nclass = 0", fillcolor="#e58139"] ;
115 -> 117 ;
118 [label="LONG <= 162.0\ngini = 0.495\nsamples = 62\nvalue = [28, 34]\nclass = 1", fillcolor="#dceefa"] ;
114 -> 118 ;
119 [label="gini = 0.0\nsamples = 5\nvalue = [0, 5]\nclass = 1", fillcolor="#399de5"] ;
118 -> 119 ;
120 [label="gini = 0.5\nsamples = 57\nvalue = [28, 29]\nclass = 1", fillcolor="#f8fcfe"] ;
118 -> 120 ;
121 [label="YEAR <= 1836.5\ngini = 0.211\nsamples = 117\nvalue = [14, 103]\nclass = 1", fillcolor="#54aae9"] ;
111 -> 121 ;
122 [label="gini = 0.0\nsamples = 42\nvalue = [0, 42]\nclass = 1", fillcolor="#399de5"] ;
121 -> 122 ;
123 [label="YEAR <= 1840.5\ngini = 0.304\nsamples = 75\nvalue = [14, 61]\nclass = 1", fillcolor="#66b3eb"] ;
121 -> 123 ;
124 [label="gini = 0.0\nsamples = 2\nvalue = [2, 0]\nclass = 0", fillcolor="#e58139"] ;
123 -> 124 ;
125 [label="DATE <= 24.5\ngini = 0.275\nsamples = 73\nvalue = [12, 61]\nclass = 1", fillcolor="#60b0ea"] ;
123 -> 125 ;
126 [label="gini = 0.18\nsamples = 60\nvalue = [6, 54]\nclass = 1", fillcolor="#4fa8e8"] ;
125 -> 126 ;
127 [label="gini = 0.497\nsamples = 13\nvalue = [6, 7]\nclass = 1", fillcolor="#e3f1fb"] ;
125 -> 127 ;
128 [label="YEAR <= 1958.5\ngini = 0.106\nsamples = 1360\nvalue = [76, 1284]\nclass = 1", fillcolor="#45a3e7"] ;
110 -> 128 ;
129 [label="gini = 0.0\nsamples = 463\nvalue = [0, 463]\nclass = 1", fillcolor="#399de5"] ;
128 -> 129 ;
130 [label="DEPTH <= 110.5\ngini = 0.155\nsamples = 897\nvalue = [76, 821]\nclass = 1", fillcolor="#4ba6e7"] ;
128 -> 130 ;
131 [label="LAT <= 785.5\ngini = 0.147\nsamples = 879\nvalue = [70, 809]\nclass = 1", fillcolor="#4aa5e7"] ;
130 -> 131 ;
132 [label="DATE <= 11.5\ngini = 0.203\nsamples = 279\nvalue = [32, 247]\nclass = 1", fillcolor="#53aae8"] ;
131 -> 132 ;
133 [label="gini = 0.096\nsamples = 99\nvalue = [5, 94]\nclass = 1", fillcolor="#44a2e6"] ;
132 -> 133 ;
134 [label="gini = 0.255\nsamples = 180\nvalue = [27, 153]\nclass = 1", fillcolor="#5caeea"] ;
132 -> 134 ;
135 [label="DEPTH <= 53.5\ngini = 0.119\nsamples = 600\nvalue = [38, 562]\nclass = 1", fillcolor="#46a4e7"] ;
131 -> 135 ;
136 [label="gini = 0.093\nsamples = 471\nvalue = [23, 448]\nclass = 1", fillcolor="#43a2e6"] ;
135 -> 136 ;
137 [label="gini = 0.206\nsamples = 129\nvalue = [15, 114]\nclass = 1", fillcolor="#53aae8"] ;
135 -> 137 ;
138 [label="YEAR <= 1969.5\ngini = 0.444\nsamples = 18\nvalue = [6, 12]\nclass = 1", fillcolor="#9ccef2"] ;
130 -> 138 ;
139 [label="gini = 0.0\nsamples = 7\nvalue = [0, 7]\nclass = 1", fillcolor="#399de5"] ;
138 -> 139 ;
140 [label="DEPTH <= 115.5\ngini = 0.496\nsamples = 11\nvalue = [6, 5]\nclass = 0", fillcolor="#fbeade"] ;
138 -> 140 ;
141 [label="gini = 0.32\nsamples = 5\nvalue = [4, 1]\nclass = 0", fillcolor="#eca06a"] ;
140 -> 141 ;
142 [label="gini = 0.444\nsamples = 6\nvalue = [2, 4]\nclass = 1", fillcolor="#9ccef2"] ;
140 -> 142 ;
143 [label="YEAR <= 1953.5\ngini = 0.265\nsamples = 1796\nvalue = [283, 1513]\nclass = 1", fillcolor="#5eafea"] ;
109 -> 143 ;
144 [label="gini = 0.0\nsamples = 194\nvalue = [0, 194]\nclass = 1", fillcolor="#399de5"] ;
143 -> 144 ;
145 [label="LONG <= 739.0\ngini = 0.291\nsamples = 1602\nvalue = [283, 1319]\nclass = 1", fillcolor="#63b2eb"] ;
143 -> 145 ;
146 [label="LONG <= 399.5\ngini = 0.353\nsamples = 731\nvalue = [167, 564]\nclass = 1", fillcolor="#74baed"] ;
145 -> 146 ;
147 [label="YEAR <= 1972.5\ngini = 0.327\nsamples = 669\nvalue = [138, 531]\nclass = 1", fillcolor="#6cb6ec"] ;
146 -> 147 ;
148 [label="DEPTH <= 0.5\ngini = 0.235\nsamples = 361\nvalue = [49, 312]\nclass = 1", fillcolor="#58ace9"] ;
147 -> 148 ;
149 [label="gini = 0.39\nsamples = 94\nvalue = [25, 69]\nclass = 1", fillcolor="#81c1ee"] ;
148 -> 149 ;
150 [label="gini = 0.164\nsamples = 267\nvalue = [24, 243]\nclass = 1", fillcolor="#4da7e8"] ;
148 -> 150 ;
151 [label="MONTH <= 9.5\ngini = 0.411\nsamples = 308\nvalue = [89, 219]\nclass = 1", fillcolor="#89c5f0"] ;
147 -> 151 ;
152 [label="gini = 0.446\nsamples = 244\nvalue = [82, 162]\nclass = 1", fillcolor="#9dcff2"] ;
151 -> 152 ;
153 [label="gini = 0.195\nsamples = 64\nvalue = [7, 57]\nclass = 1", fillcolor="#51a9e8"] ;
151 -> 153 ;
154 [label="DATE <= 1.5\ngini = 0.498\nsamples = 62\nvalue = [29, 33]\nclass = 1", fillcolor="#e7f3fc"] ;
146 -> 154 ;
155 [label="LAT <= 239.5\ngini = 0.32\nsamples = 5\nvalue = [4, 1]\nclass = 0", fillcolor="#eca06a"] ;
154 -> 155 ;
156 [label="gini = 0.0\nsamples = 4\nvalue = [4, 0]\nclass = 0", fillcolor="#e58139"] ;
155 -> 156 ;
157 [label="gini = 0.0\nsamples = 1\nvalue = [0, 1]\nclass = 1", fillcolor="#399de5"] ;
155 -> 157 ;
158 [label="YEAR <= 1956.5\ngini = 0.492\nsamples = 57\nvalue = [25, 32]\nclass = 1", fillcolor="#d4eaf9"] ;
154 -> 158 ;
159 [label="gini = 0.375\nsamples = 12\nvalue = [3, 9]\nclass = 1", fillcolor="#7bbeee"] ;
158 -> 159 ;
160 [label="gini = 0.5\nsamples = 45\nvalue = [22, 23]\nclass = 1", fillcolor="#f6fbfe"] ;
158 -> 160 ;
161 [label="YEAR <= 1973.5\ngini = 0.231\nsamples = 871\nvalue = [116, 755]\nclass = 1", fillcolor="#57ace9"] ;
145 -> 161 ;
162 [label="YEAR <= 1966.5\ngini = 0.289\nsamples = 416\nvalue = [73, 343]\nclass = 1", fillcolor="#63b2eb"] ;
161 -> 162 ;
163 [label="REF <= 10.5\ngini = 0.106\nsamples = 89\nvalue = [5, 84]\nclass = 1", fillcolor="#45a3e7"] ;
162 -> 163 ;
164 [label="gini = 0.0\nsamples = 1\nvalue = [1, 0]\nclass = 0", fillcolor="#e58139"] ;
163 -> 164 ;
165 [label="gini = 0.087\nsamples = 88\nvalue = [4, 84]\nclass = 1", fillcolor="#42a2e6"] ;
163 -> 165 ;
166 [label="YEAR <= 1971.5\ngini = 0.329\nsamples = 327\nvalue = [68, 259]\nclass = 1", fillcolor="#6db7ec"] ;
162 -> 166 ;
167 [label="gini = 0.388\nsamples = 175\nvalue = [46, 129]\nclass = 1", fillcolor="#80c0ee"] ;
166 -> 167 ;
168 [label="gini = 0.248\nsamples = 152\nvalue = [22, 130]\nclass = 1", fillcolor="#5baee9"] ;
166 -> 168 ;
169 [label="YEAR <= 1976.5\ngini = 0.171\nsamples = 455\nvalue = [43, 412]\nclass = 1", fillcolor="#4ea7e8"] ;
161 -> 169 ;
170 [label="LAT <= 305.5\ngini = 0.203\nsamples = 357\nvalue = [41, 316]\nclass = 1", fillcolor="#53aae8"] ;
169 -> 170 ;
171 [label="gini = 0.187\nsamples = 336\nvalue = [35, 301]\nclass = 1", fillcolor="#50a8e8"] ;
170 -> 171 ;
172 [label="gini = 0.408\nsamples = 21\nvalue = [6, 15]\nclass = 1", fillcolor="#88c4ef"] ;
170 -> 172 ;
173 [label="LONG <= 878.0\ngini = 0.04\nsamples = 98\nvalue = [2, 96]\nclass = 1", fillcolor="#3d9fe6"] ;
169 -> 173 ;
174 [label="gini = 0.444\nsamples = 3\nvalue = [1, 2]\nclass = 1", fillcolor="#9ccef2"] ;
173 -> 174 ;
175 [label="gini = 0.021\nsamples = 95\nvalue = [1, 94]\nclass = 1", fillcolor="#3b9ee5"] ;
173 -> 175 ;
176 [label="LAT <= 671.5\ngini = 0.375\nsamples = 3408\nvalue = [851, 2557]\nclass = 1", fillcolor="#7bbeee"] ;
108 -> 176 ;
177 [label="MONTH <= 1.5\ngini = 0.231\nsamples = 1542\nvalue = [205, 1337]\nclass = 1", fillcolor="#57ace9"] ;
176 -> 177 ;
178 [label="DATE <= 29.5\ngini = 0.104\nsamples = 164\nvalue = [9, 155]\nclass = 1", fillcolor="#44a3e7"] ;
177 -> 178 ;
179 [label="YEAR <= 1982.5\ngini = 0.086\nsamples = 156\nvalue = [7, 149]\nclass = 1", fillcolor="#42a2e6"] ;
178 -> 179 ;
180 [label="DEPTH <= 22.0\ngini = 0.145\nsamples = 76\nvalue = [6, 70]\nclass = 1", fillcolor="#4aa5e7"] ;
179 -> 180 ;
181 [label="LAT <= 298.5\ngini = 0.337\nsamples = 14\nvalue = [3, 11]\nclass = 1", fillcolor="#6fb8ec"] ;
180 -> 181 ;
182 [label="gini = 0.5\nsamples = 6\nvalue = [3, 3]\nclass = 0", fillcolor="#ffffff"] ;
181 -> 182 ;
183 [label="gini = 0.0\nsamples = 8\nvalue = [0, 8]\nclass = 1", fillcolor="#399de5"] ;
181 -> 183 ;
184 [label="LAT <= 302.5\ngini = 0.092\nsamples = 62\nvalue = [3, 59]\nclass = 1", fillcolor="#43a2e6"] ;
180 -> 184 ;
185 [label="gini = 0.065\nsamples = 59\nvalue = [2, 57]\nclass = 1", fillcolor="#40a0e6"] ;
184 -> 185 ;
186 [label="gini = 0.444\nsamples = 3\nvalue = [1, 2]\nclass = 1", fillcolor="#9ccef2"] ;
184 -> 186 ;
187 [label="LAT <= 314.0\ngini = 0.025\nsamples = 80\nvalue = [1, 79]\nclass = 1", fillcolor="#3c9ee5"] ;
179 -> 187 ;
188 [label="gini = 0.0\nsamples = 75\nvalue = [0, 75]\nclass = 1", fillcolor="#399de5"] ;
187 -> 188 ;
189 [label="DATE <= 19.5\ngini = 0.32\nsamples = 5\nvalue = [1, 4]\nclass = 1", fillcolor="#6ab6ec"] ;
187 -> 189 ;
190 [label="gini = 0.0\nsamples = 4\nvalue = [0, 4]\nclass = 1", fillcolor="#399de5"] ;
189 -> 190 ;
191 [label="gini = 0.0\nsamples = 1\nvalue = [1, 0]\nclass = 0", fillcolor="#e58139"] ;
189 -> 191 ;
192 [label="DATE <= 30.5\ngini = 0.375\nsamples = 8\nvalue = [2, 6]\nclass = 1", fillcolor="#7bbeee"] ;
178 -> 192 ;
193 [label="gini = 0.0\nsamples = 1\nvalue = [1, 0]\nclass = 0", fillcolor="#e58139"] ;
192 -> 193 ;
194 [label="LONG <= 931.0\ngini = 0.245\nsamples = 7\nvalue = [1, 6]\nclass = 1", fillcolor="#5aade9"] ;
192 -> 194 ;
195 [label="gini = 0.0\nsamples = 1\nvalue = [1, 0]\nclass = 0", fillcolor="#e58139"] ;
194 -> 195 ;
196 [label="gini = 0.0\nsamples = 6\nvalue = [0, 6]\nclass = 1", fillcolor="#399de5"] ;
194 -> 196 ;
197 [label="DEPTH <= 32.5\ngini = 0.244\nsamples = 1378\nvalue = [196, 1182]\nclass = 1", fillcolor="#5aade9"] ;
177 -> 197 ;
198 [label="LAT <= 165.0\ngini = 0.201\nsamples = 575\nvalue = [65, 510]\nclass = 1", fillcolor="#52a9e8"] ;
197 -> 198 ;
199 [label="DATE <= 1.5\ngini = 0.276\nsamples = 133\nvalue = [22, 111]\nclass = 1", fillcolor="#60b0ea"] ;
198 -> 199 ;
200 [label="gini = 0.0\nsamples = 2\nvalue = [2, 0]\nclass = 0", fillcolor="#e58139"] ;
199 -> 200 ;
201 [label="DATE <= 18.5\ngini = 0.259\nsamples = 131\nvalue = [20, 111]\nclass = 1", fillcolor="#5dafea"] ;
199 -> 201 ;
202 [label="gini = 0.336\nsamples = 75\nvalue = [16, 59]\nclass = 1", fillcolor="#6fb8ec"] ;
201 -> 202 ;
203 [label="gini = 0.133\nsamples = 56\nvalue = [4, 52]\nclass = 1", fillcolor="#48a5e7"] ;
201 -> 203 ;
204 [label="LAT <= 269.5\ngini = 0.176\nsamples = 442\nvalue = [43, 399]\nclass = 1", fillcolor="#4ea8e8"] ;
198 -> 204 ;
205 [label="LONG <= 942.5\ngini = 0.132\nsamples = 267\nvalue = [19, 248]\nclass = 1", fillcolor="#48a5e7"] ;
204 -> 205 ;
206 [label="gini = 0.096\nsamples = 178\nvalue = [9, 169]\nclass = 1", fillcolor="#44a2e6"] ;
205 -> 206 ;
207 [label="gini = 0.199\nsamples = 89\nvalue = [10, 79]\nclass = 1", fillcolor="#52a9e8"] ;
205 -> 207 ;
208 [label="LONG <= 337.0\ngini = 0.237\nsamples = 175\nvalue = [24, 151]\nclass = 1", fillcolor="#58ade9"] ;
204 -> 208 ;
209 [label="gini = 0.083\nsamples = 46\nvalue = [2, 44]\nclass = 1", fillcolor="#42a1e6"] ;
208 -> 209 ;
210 [label="gini = 0.283\nsamples = 129\nvalue = [22, 107]\nclass = 1", fillcolor="#62b1ea"] ;
208 -> 210 ;
211 [label="LONG <= 274.5\ngini = 0.273\nsamples = 803\nvalue = [131, 672]\nclass = 1", fillcolor="#60b0ea"] ;
197 -> 211 ;
212 [label="LONG <= 257.0\ngini = 0.48\nsamples = 15\nvalue = [9, 6]\nclass = 0", fillcolor="#f6d5bd"] ;
211 -> 212 ;
213 [label="DATE <= 6.5\ngini = 0.278\nsamples = 6\nvalue = [1, 5]\nclass = 1", fillcolor="#61b1ea"] ;
212 -> 213 ;
214 [label="gini = 0.5\nsamples = 2\nvalue = [1, 1]\nclass = 0", fillcolor="#ffffff"] ;
213 -> 214 ;
215 [label="gini = 0.0\nsamples = 4\nvalue = [0, 4]\nclass = 1", fillcolor="#399de5"] ;
213 -> 215 ;
216 [label="DATE <= 7.5\ngini = 0.198\nsamples = 9\nvalue = [8, 1]\nclass = 0", fillcolor="#e89152"] ;
212 -> 216 ;
217 [label="gini = 0.5\nsamples = 2\nvalue = [1, 1]\nclass = 0", fillcolor="#ffffff"] ;
216 -> 217 ;
218 [label="gini = 0.0\nsamples = 7\nvalue = [7, 0]\nclass = 0", fillcolor="#e58139"] ;
216 -> 218 ;
219 [label="YEAR <= 1984.5\ngini = 0.262\nsamples = 788\nvalue = [122, 666]\nclass = 1", fillcolor="#5dafea"] ;
211 -> 219 ;
220 [label="LAT <= 244.5\ngini = 0.252\nsamples = 750\nvalue = [111, 639]\nclass = 1", fillcolor="#5baeea"] ;
219 -> 220 ;
221 [label="gini = 0.299\nsamples = 306\nvalue = [56, 250]\nclass = 1", fillcolor="#65b3eb"] ;
220 -> 221 ;
222 [label="gini = 0.217\nsamples = 444\nvalue = [55, 389]\nclass = 1", fillcolor="#55abe9"] ;
220 -> 222 ;
223 [label="LAT <= 223.5\ngini = 0.411\nsamples = 38\nvalue = [11, 27]\nclass = 1", fillcolor="#8ac5f0"] ;
219 -> 223 ;
224 [label="gini = 0.0\nsamples = 2\nvalue = [2, 0]\nclass = 0", fillcolor="#e58139"] ;
223 -> 224 ;
225 [label="gini = 0.375\nsamples = 36\nvalue = [9, 27]\nclass = 1", fillcolor="#7bbeee"] ;
223 -> 225 ;
226 [label="LAT <= 720.5\ngini = 0.453\nsamples = 1866\nvalue = [646, 1220]\nclass = 1", fillcolor="#a2d1f3"] ;
176 -> 226 ;
227 [label="LONG <= 312.0\ngini = 0.498\nsamples = 562\nvalue = [265, 297]\nclass = 1", fillcolor="#eaf4fc"] ;
226 -> 227 ;
228 [label="LONG <= 291.0\ngini = 0.273\nsamples = 43\nvalue = [7, 36]\nclass = 1", fillcolor="#5fb0ea"] ;
227 -> 228 ;
229 [label="DATE <= 6.0\ngini = 0.48\nsamples = 10\nvalue = [4, 6]\nclass = 1", fillcolor="#bddef6"] ;
228 -> 229 ;
230 [label="gini = 0.0\nsamples = 3\nvalue = [3, 0]\nclass = 0", fillcolor="#e58139"] ;
229 -> 230 ;
231 [label="MONTH <= 4.5\ngini = 0.245\nsamples = 7\nvalue = [1, 6]\nclass = 1", fillcolor="#5aade9"] ;
229 -> 231 ;
232 [label="gini = 0.5\nsamples = 2\nvalue = [1, 1]\nclass = 0", fillcolor="#ffffff"] ;
231 -> 232 ;
233 [label="gini = 0.0\nsamples = 5\nvalue = [0, 5]\nclass = 1", fillcolor="#399de5"] ;
231 -> 233 ;
234 [label="YEAR <= 1978.5\ngini = 0.165\nsamples = 33\nvalue = [3, 30]\nclass = 1", fillcolor="#4da7e8"] ;
228 -> 234 ;
235 [label="LONG <= 299.0\ngini = 0.444\nsamples = 6\nvalue = [2, 4]\nclass = 1", fillcolor="#9ccef2"] ;
234 -> 235 ;
236 [label="gini = 0.0\nsamples = 3\nvalue = [0, 3]\nclass = 1", fillcolor="#399de5"] ;
235 -> 236 ;
237 [label="gini = 0.444\nsamples = 3\nvalue = [2, 1]\nclass = 0", fillcolor="#f2c09c"] ;
235 -> 237 ;
238 [label="MONTH <= 10.5\ngini = 0.071\nsamples = 27\nvalue = [1, 26]\nclass = 1", fillcolor="#41a1e6"] ;
234 -> 238 ;
239 [label="gini = 0.0\nsamples = 24\nvalue = [0, 24]\nclass = 1", fillcolor="#399de5"] ;
238 -> 239 ;
240 [label="gini = 0.444\nsamples = 3\nvalue = [1, 2]\nclass = 1", fillcolor="#9ccef2"] ;
238 -> 240 ;
241 [label="DEPTH <= 38.5\ngini = 0.5\nsamples = 519\nvalue = [258, 261]\nclass = 1", fillcolor="#fdfeff"] ;
227 -> 241 ;
242 [label="DEPTH <= 32.5\ngini = 0.491\nsamples = 262\nvalue = [149, 113]\nclass = 0", fillcolor="#f9e1cf"] ;
241 -> 242 ;
243 [label="LONG <= 380.5\ngini = 0.5\nsamples = 191\nvalue = [97, 94]\nclass = 0", fillcolor="#fefbf9"] ;
242 -> 243 ;
244 [label="gini = 0.494\nsamples = 157\nvalue = [87, 70]\nclass = 0", fillcolor="#fae6d8"] ;
243 -> 244 ;
245 [label="gini = 0.415\nsamples = 34\nvalue = [10, 24]\nclass = 1", fillcolor="#8bc6f0"] ;
243 -> 245 ;
246 [label="LAT <= 711.5\ngini = 0.392\nsamples = 71\nvalue = [52, 19]\nclass = 0", fillcolor="#eeaf81"] ;
242 -> 246 ;
247 [label="gini = 0.487\nsamples = 43\nvalue = [25, 18]\nclass = 0", fillcolor="#f8dcc8"] ;
246 -> 247 ;
248 [label="gini = 0.069\nsamples = 28\nvalue = [27, 1]\nclass = 0", fillcolor="#e68640"] ;
246 -> 248 ;
249 [label="LONG <= 382.0\ngini = 0.488\nsamples = 257\nvalue = [109, 148]\nclass = 1", fillcolor="#cbe5f8"] ;
241 -> 249 ;
250 [label="DATE <= 2.5\ngini = 0.481\nsamples = 238\nvalue = [96, 142]\nclass = 1", fillcolor="#bfdff7"] ;
249 -> 250 ;
251 [label="gini = 0.255\nsamples = 20\nvalue = [3, 17]\nclass = 1", fillcolor="#5caeea"] ;
250 -> 251 ;
252 [label="gini = 0.489\nsamples = 218\nvalue = [93, 125]\nclass = 1", fillcolor="#cce6f8"] ;
250 -> 252 ;
253 [label="MONTH <= 6.5\ngini = 0.432\nsamples = 19\nvalue = [13, 6]\nclass = 0", fillcolor="#f1bb94"] ;
249 -> 253 ;
254 [label="gini = 0.48\nsamples = 10\nvalue = [4, 6]\nclass = 1", fillcolor="#bddef6"] ;
253 -> 254 ;
255 [label="gini = 0.0\nsamples = 9\nvalue = [9, 0]\nclass = 0", fillcolor="#e58139"] ;
253 -> 255 ;
256 [label="DEPTH <= 32.5\ngini = 0.414\nsamples = 1304\nvalue = [381, 923]\nclass = 1", fillcolor="#8bc5f0"] ;
226 -> 256 ;
257 [label="YEAR <= 1982.5\ngini = 0.371\nsamples = 491\nvalue = [121, 370]\nclass = 1", fillcolor="#7abdee"] ;
256 -> 257 ;
258 [label="LAT <= 755.5\ngini = 0.264\nsamples = 217\nvalue = [34, 183]\nclass = 1", fillcolor="#5eafea"] ;
257 -> 258 ;
259 [label="DEPTH <= 21.0\ngini = 0.366\nsamples = 58\nvalue = [14, 44]\nclass = 1", fillcolor="#78bced"] ;
258 -> 259 ;
260 [label="gini = 0.324\nsamples = 54\nvalue = [11, 43]\nclass = 1", fillcolor="#6cb6ec"] ;
259 -> 260 ;
261 [label="gini = 0.375\nsamples = 4\nvalue = [3, 1]\nclass = 0", fillcolor="#eeab7b"] ;
259 -> 261 ;
262 [label="LONG <= 63.5\ngini = 0.22\nsamples = 159\nvalue = [20, 139]\nclass = 1", fillcolor="#55abe9"] ;
258 -> 262 ;
263 [label="gini = 0.432\nsamples = 19\nvalue = [6, 13]\nclass = 1", fillcolor="#94caf1"] ;
262 -> 263 ;
264 [label="gini = 0.18\nsamples = 140\nvalue = [14, 126]\nclass = 1", fillcolor="#4fa8e8"] ;
262 -> 264 ;
265 [label="DEPTH <= 11.5\ngini = 0.433\nsamples = 274\nvalue = [87, 187]\nclass = 1", fillcolor="#95cbf1"] ;
257 -> 265 ;
266 [label="LONG <= 188.0\ngini = 0.488\nsamples = 187\nvalue = [79, 108]\nclass = 1", fillcolor="#cae5f8"] ;
265 -> 266 ;
267 [label="gini = 0.479\nsamples = 63\nvalue = [38, 25]\nclass = 0", fillcolor="#f6d4bb"] ;
266 -> 267 ;
268 [label="gini = 0.443\nsamples = 124\nvalue = [41, 83]\nclass = 1", fillcolor="#9bcdf2"] ;
266 -> 268 ;
269 [label="LONG <= 399.5\ngini = 0.167\nsamples = 87\nvalue = [8, 79]\nclass = 1", fillcolor="#4da7e8"] ;
265 -> 269 ;
270 [label="gini = 0.15\nsamples = 86\nvalue = [7, 79]\nclass = 1", fillcolor="#4ba6e7"] ;
269 -> 270 ;
271 [label="gini = 0.0\nsamples = 1\nvalue = [1, 0]\nclass = 0", fillcolor="#e58139"] ;
269 -> 271 ;
272 [label="MONTH <= 6.5\ngini = 0.435\nsamples = 813\nvalue = [260, 553]\nclass = 1", fillcolor="#96cbf1"] ;
256 -> 272 ;
273 [label="DATE <= 13.5\ngini = 0.469\nsamples = 367\nvalue = [138, 229]\nclass = 1", fillcolor="#b0d8f5"] ;
272 -> 273 ;
274 [label="DATE <= 1.5\ngini = 0.417\nsamples = 172\nvalue = [51, 121]\nclass = 1", fillcolor="#8cc6f0"] ;
273 -> 274 ;
275 [label="gini = 0.486\nsamples = 12\nvalue = [7, 5]\nclass = 0", fillcolor="#f8dbc6"] ;
274 -> 275 ;
276 [label="gini = 0.399\nsamples = 160\nvalue = [44, 116]\nclass = 1", fillcolor="#84c2ef"] ;
274 -> 276 ;
277 [label="DEPTH <= 116.5\ngini = 0.494\nsamples = 195\nvalue = [87, 108]\nclass = 1", fillcolor="#d9ecfa"] ;
273 -> 277 ;
278 [label="gini = 0.49\nsamples = 187\nvalue = [80, 107]\nclass = 1", fillcolor="#cde6f8"] ;
277 -> 278 ;
279 [label="gini = 0.219\nsamples = 8\nvalue = [7, 1]\nclass = 0", fillcolor="#e99355"] ;
277 -> 279 ;
280 [label="LONG <= 265.5\ngini = 0.397\nsamples = 446\nvalue = [122, 324]\nclass = 1", fillcolor="#84c2ef"] ;
272 -> 280 ;
281 [label="DATE <= 23.5\ngini = 0.357\nsamples = 228\nvalue = [53, 175]\nclass = 1", fillcolor="#75bbed"] ;
280 -> 281 ;
282 [label="gini = 0.315\nsamples = 194\nvalue = [38, 156]\nclass = 1", fillcolor="#69b5eb"] ;
281 -> 282 ;
283 [label="gini = 0.493\nsamples = 34\nvalue = [15, 19]\nclass = 1", fillcolor="#d5eafa"] ;
281 -> 283 ;
284 [label="LONG <= 289.0\ngini = 0.433\nsamples = 218\nvalue = [69, 149]\nclass = 1", fillcolor="#95caf1"] ;
280 -> 284 ;
285 [label="gini = 0.499\nsamples = 27\nvalue = [14, 13]\nclass = 0", fillcolor="#fdf6f1"] ;
284 -> 285 ;
286 [label="gini = 0.41\nsamples = 191\nvalue = [55, 136]\nclass = 1", fillcolor="#89c5f0"] ;
284 -> 286 ;
287 [label="YEAR <= 1970.5\ngini = 0.467\nsamples = 972\nvalue = [362, 610]\nclass = 1", fillcolor="#afd7f4"] ;
1 -> 287 ;
288 [label="YEAR <= 1962.5\ngini = 0.186\nsamples = 250\nvalue = [26, 224]\nclass = 1", fillcolor="#50a8e8"] ;
287 -> 288 ;
289 [label="gini = 0.0\nsamples = 60\nvalue = [0, 60]\nclass = 1", fillcolor="#399de5"] ;
288 -> 289 ;
290 [label="DATE <= 5.5\ngini = 0.236\nsamples = 190\nvalue = [26, 164]\nclass = 1", fillcolor="#58ade9"] ;
288 -> 290 ;
291 [label="DATE <= 2.5\ngini = 0.42\nsamples = 30\nvalue = [9, 21]\nclass = 1", fillcolor="#8ec7f0"] ;
290 -> 291 ;
292 [label="DEPTH <= 172.0\ngini = 0.153\nsamples = 12\nvalue = [1, 11]\nclass = 1", fillcolor="#4ba6e7"] ;
291 -> 292 ;
293 [label="DEPTH <= 145.0\ngini = 0.5\nsamples = 2\nvalue = [1, 1]\nclass = 0", fillcolor="#ffffff"] ;
292 -> 293 ;
294 [label="gini = 0.0\nsamples = 1\nvalue = [0, 1]\nclass = 1", fillcolor="#399de5"] ;
293 -> 294 ;
295 [label="gini = 0.0\nsamples = 1\nvalue = [1, 0]\nclass = 0", fillcolor="#e58139"] ;
293 -> 295 ;
296 [label="gini = 0.0\nsamples = 10\nvalue = [0, 10]\nclass = 1", fillcolor="#399de5"] ;
292 -> 296 ;
297 [label="MONTH <= 2.0\ngini = 0.494\nsamples = 18\nvalue = [8, 10]\nclass = 1", fillcolor="#d7ebfa"] ;
291 -> 297 ;
298 [label="gini = 0.0\nsamples = 3\nvalue = [3, 0]\nclass = 0", fillcolor="#e58139"] ;
297 -> 298 ;
299 [label="DATE <= 3.5\ngini = 0.444\nsamples = 15\nvalue = [5, 10]\nclass = 1", fillcolor="#9ccef2"] ;
297 -> 299 ;
300 [label="DEPTH <= 210.5\ngini = 0.444\nsamples = 6\nvalue = [4, 2]\nclass = 0", fillcolor="#f2c09c"] ;
299 -> 300 ;
301 [label="YEAR <= 1969.5\ngini = 0.444\nsamples = 3\nvalue = [1, 2]\nclass = 1", fillcolor="#9ccef2"] ;
300 -> 301 ;
302 [label="gini = 0.0\nsamples = 2\nvalue = [0, 2]\nclass = 1", fillcolor="#399de5"] ;
301 -> 302 ;
303 [label="gini = 0.0\nsamples = 1\nvalue = [1, 0]\nclass = 0", fillcolor="#e58139"] ;
301 -> 303 ;
304 [label="gini = 0.0\nsamples = 3\nvalue = [3, 0]\nclass = 0", fillcolor="#e58139"] ;
300 -> 304 ;
305 [label="LONG <= 43.5\ngini = 0.198\nsamples = 9\nvalue = [1, 8]\nclass = 1", fillcolor="#52a9e8"] ;
299 -> 305 ;
306 [label="gini = 0.0\nsamples = 1\nvalue = [1, 0]\nclass = 0", fillcolor="#e58139"] ;
305 -> 306 ;
307 [label="gini = 0.0\nsamples = 8\nvalue = [0, 8]\nclass = 1", fillcolor="#399de5"] ;
305 -> 307 ;
308 [label="DEPTH <= 216.5\ngini = 0.19\nsamples = 160\nvalue = [17, 143]\nclass = 1", fillcolor="#51a9e8"] ;
290 -> 308 ;
309 [label="LONG <= 359.0\ngini = 0.142\nsamples = 117\nvalue = [9, 108]\nclass = 1", fillcolor="#49a5e7"] ;
308 -> 309 ;
310 [label="YEAR <= 1967.5\ngini = 0.337\nsamples = 14\nvalue = [3, 11]\nclass = 1", fillcolor="#6fb8ec"] ;
309 -> 310 ;
311 [label="gini = 0.0\nsamples = 8\nvalue = [0, 8]\nclass = 1", fillcolor="#399de5"] ;
310 -> 311 ;
312 [label="DEPTH <= 141.0\ngini = 0.5\nsamples = 6\nvalue = [3, 3]\nclass = 0", fillcolor="#ffffff"] ;
310 -> 312 ;
313 [label="gini = 0.0\nsamples = 2\nvalue = [0, 2]\nclass = 1", fillcolor="#399de5"] ;
312 -> 313 ;
314 [label="MONTH <= 4.0\ngini = 0.375\nsamples = 4\nvalue = [3, 1]\nclass = 0", fillcolor="#eeab7b"] ;
312 -> 314 ;
315 [label="gini = 0.0\nsamples = 2\nvalue = [2, 0]\nclass = 0", fillcolor="#e58139"] ;
314 -> 315 ;
316 [label="gini = 0.5\nsamples = 2\nvalue = [1, 1]\nclass = 0", fillcolor="#ffffff"] ;
314 -> 316 ;
317 [label="YEAR <= 1963.5\ngini = 0.11\nsamples = 103\nvalue = [6, 97]\nclass = 1", fillcolor="#45a3e7"] ;
309 -> 317 ;
318 [label="LAT <= 704.5\ngini = 0.408\nsamples = 7\nvalue = [2, 5]\nclass = 1", fillcolor="#88c4ef"] ;
317 -> 318 ;
319 [label="MONTH <= 6.5\ngini = 0.444\nsamples = 3\nvalue = [2, 1]\nclass = 0", fillcolor="#f2c09c"] ;
318 -> 319 ;
320 [label="gini = 0.0\nsamples = 2\nvalue = [2, 0]\nclass = 0", fillcolor="#e58139"] ;
319 -> 320 ;
321 [label="gini = 0.0\nsamples = 1\nvalue = [0, 1]\nclass = 1", fillcolor="#399de5"] ;
319 -> 321 ;
322 [label="gini = 0.0\nsamples = 4\nvalue = [0, 4]\nclass = 1", fillcolor="#399de5"] ;
318 -> 322 ;
323 [label="YEAR <= 1969.5\ngini = 0.08\nsamples = 96\nvalue = [4, 92]\nclass = 1", fillcolor="#42a1e6"] ;
317 -> 323 ;
324 [label="DEPTH <= 210.0\ngini = 0.051\nsamples = 76\nvalue = [2, 74]\nclass = 1", fillcolor="#3ea0e6"] ;
323 -> 324 ;
325 [label="gini = 0.029\nsamples = 67\nvalue = [1, 66]\nclass = 1", fillcolor="#3c9ee5"] ;
324 -> 325 ;
326 [label="gini = 0.198\nsamples = 9\nvalue = [1, 8]\nclass = 1", fillcolor="#52a9e8"] ;
324 -> 326 ;
327 [label="LONG <= 363.5\ngini = 0.18\nsamples = 20\nvalue = [2, 18]\nclass = 1", fillcolor="#4fa8e8"] ;
323 -> 327 ;
328 [label="gini = 0.0\nsamples = 1\nvalue = [1, 0]\nclass = 0", fillcolor="#e58139"] ;
327 -> 328 ;
329 [label="gini = 0.1\nsamples = 19\nvalue = [1, 18]\nclass = 1", fillcolor="#44a2e6"] ;
327 -> 329 ;
330 [label="MONTH <= 2.5\ngini = 0.303\nsamples = 43\nvalue = [8, 35]\nclass = 1", fillcolor="#66b3eb"] ;
308 -> 330 ;
331 [label="DATE <= 22.5\ngini = 0.5\nsamples = 8\nvalue = [4, 4]\nclass = 0", fillcolor="#ffffff"] ;
330 -> 331 ;
332 [label="LONG <= 365.5\ngini = 0.32\nsamples = 5\nvalue = [4, 1]\nclass = 0", fillcolor="#eca06a"] ;
331 -> 332 ;
333 [label="gini = 0.0\nsamples = 4\nvalue = [4, 0]\nclass = 0", fillcolor="#e58139"] ;
332 -> 333 ;
334 [label="gini = 0.0\nsamples = 1\nvalue = [0, 1]\nclass = 1", fillcolor="#399de5"] ;
332 -> 334 ;
335 [label="gini = 0.0\nsamples = 3\nvalue = [0, 3]\nclass = 1", fillcolor="#399de5"] ;
331 -> 335 ;
336 [label="DATE <= 29.0\ngini = 0.202\nsamples = 35\nvalue = [4, 31]\nclass = 1", fillcolor="#53aae8"] ;
330 -> 336 ;
337 [label="DEPTH <= 223.5\ngini = 0.117\nsamples = 32\nvalue = [2, 30]\nclass = 1", fillcolor="#46a4e7"] ;
336 -> 337 ;
338 [label="LONG <= 361.5\ngini = 0.346\nsamples = 9\nvalue = [2, 7]\nclass = 1", fillcolor="#72b9ec"] ;
337 -> 338 ;
339 [label="gini = 0.0\nsamples = 1\nvalue = [1, 0]\nclass = 0", fillcolor="#e58139"] ;
338 -> 339 ;
340 [label="gini = 0.219\nsamples = 8\nvalue = [1, 7]\nclass = 1", fillcolor="#55abe9"] ;
338 -> 340 ;
341 [label="gini = 0.0\nsamples = 23\nvalue = [0, 23]\nclass = 1", fillcolor="#399de5"] ;
337 -> 341 ;
342 [label="LAT <= 703.0\ngini = 0.444\nsamples = 3\nvalue = [2, 1]\nclass = 0", fillcolor="#f2c09c"] ;
336 -> 342 ;
343 [label="gini = 0.0\nsamples = 1\nvalue = [0, 1]\nclass = 1", fillcolor="#399de5"] ;
342 -> 343 ;
344 [label="gini = 0.0\nsamples = 2\nvalue = [2, 0]\nclass = 0", fillcolor="#e58139"] ;
342 -> 344 ;
345 [label="LAT <= 697.5\ngini = 0.498\nsamples = 722\nvalue = [336, 386]\nclass = 1", fillcolor="#e5f2fc"] ;
287 -> 345 ;
346 [label="REF <= 19.0\ngini = 0.348\nsamples = 107\nvalue = [24, 83]\nclass = 1", fillcolor="#72b9ed"] ;
345 -> 346 ;
347 [label="MONTH <= 9.5\ngini = 0.32\nsamples = 5\nvalue = [4, 1]\nclass = 0", fillcolor="#eca06a"] ;
346 -> 347 ;
348 [label="gini = 0.0\nsamples = 4\nvalue = [4, 0]\nclass = 0", fillcolor="#e58139"] ;
347 -> 348 ;
349 [label="gini = 0.0\nsamples = 1\nvalue = [0, 1]\nclass = 1", fillcolor="#399de5"] ;
347 -> 349 ;
350 [label="LONG <= 943.5\ngini = 0.315\nsamples = 102\nvalue = [20, 82]\nclass = 1", fillcolor="#69b5eb"] ;
346 -> 350 ;
351 [label="DEPTH <= 164.0\ngini = 0.437\nsamples = 31\nvalue = [10, 21]\nclass = 1", fillcolor="#97ccf1"] ;
350 -> 351 ;
352 [label="YEAR <= 1985.0\ngini = 0.32\nsamples = 20\nvalue = [4, 16]\nclass = 1", fillcolor="#6ab6ec"] ;
351 -> 352 ;
353 [label="DEPTH <= 133.0\ngini = 0.266\nsamples = 19\nvalue = [3, 16]\nclass = 1", fillcolor="#5eafea"] ;
352 -> 353 ;
354 [label="DATE <= 21.0\ngini = 0.5\nsamples = 2\nvalue = [1, 1]\nclass = 0", fillcolor="#ffffff"] ;
353 -> 354 ;
355 [label="gini = 0.0\nsamples = 1\nvalue = [0, 1]\nclass = 1", fillcolor="#399de5"] ;
354 -> 355 ;
356 [label="gini = 0.0\nsamples = 1\nvalue = [1, 0]\nclass = 0", fillcolor="#e58139"] ;
354 -> 356 ;
357 [label="YEAR <= 1978.5\ngini = 0.208\nsamples = 17\nvalue = [2, 15]\nclass = 1", fillcolor="#53aae8"] ;
353 -> 357 ;
358 [label="gini = 0.408\nsamples = 7\nvalue = [2, 5]\nclass = 1", fillcolor="#88c4ef"] ;
357 -> 358 ;
359 [label="gini = 0.0\nsamples = 10\nvalue = [0, 10]\nclass = 1", fillcolor="#399de5"] ;
357 -> 359 ;
360 [label="gini = 0.0\nsamples = 1\nvalue = [1, 0]\nclass = 0", fillcolor="#e58139"] ;
352 -> 360 ;
361 [label="LONG <= 937.0\ngini = 0.496\nsamples = 11\nvalue = [6, 5]\nclass = 0", fillcolor="#fbeade"] ;
351 -> 361 ;
362 [label="DEPTH <= 236.5\ngini = 0.469\nsamples = 8\nvalue = [3, 5]\nclass = 1", fillcolor="#b0d8f5"] ;
361 -> 362 ;
363 [label="DEPTH <= 194.5\ngini = 0.408\nsamples = 7\nvalue = [2, 5]\nclass = 1", fillcolor="#88c4ef"] ;
362 -> 363 ;
364 [label="gini = 0.5\nsamples = 4\nvalue = [2, 2]\nclass = 0", fillcolor="#ffffff"] ;
363 -> 364 ;
365 [label="gini = 0.0\nsamples = 3\nvalue = [0, 3]\nclass = 1", fillcolor="#399de5"] ;
363 -> 365 ;
366 [label="gini = 0.0\nsamples = 1\nvalue = [1, 0]\nclass = 0", fillcolor="#e58139"] ;
362 -> 366 ;
367 [label="gini = 0.0\nsamples = 3\nvalue = [3, 0]\nclass = 0", fillcolor="#e58139"] ;
361 -> 367 ;
368 [label="LONG <= 965.5\ngini = 0.242\nsamples = 71\nvalue = [10, 61]\nclass = 1", fillcolor="#59ade9"] ;
350 -> 368 ;
369 [label="DEPTH <= 138.5\ngini = 0.21\nsamples = 67\nvalue = [8, 59]\nclass = 1", fillcolor="#54aae9"] ;
368 -> 369 ;
370 [label="DATE <= 4.0\ngini = 0.375\nsamples = 24\nvalue = [6, 18]\nclass = 1", fillcolor="#7bbeee"] ;
369 -> 370 ;
371 [label="gini = 0.0\nsamples = 2\nvalue = [2, 0]\nclass = 0", fillcolor="#e58139"] ;
370 -> 371 ;
372 [label="LONG <= 949.0\ngini = 0.298\nsamples = 22\nvalue = [4, 18]\nclass = 1", fillcolor="#65b3eb"] ;
370 -> 372 ;
373 [label="gini = 0.0\nsamples = 9\nvalue = [0, 9]\nclass = 1", fillcolor="#399de5"] ;
372 -> 373 ;
374 [label="gini = 0.426\nsamples = 13\nvalue = [4, 9]\nclass = 1", fillcolor="#91c9f1"] ;
372 -> 374 ;
375 [label="DEPTH <= 197.0\ngini = 0.089\nsamples = 43\nvalue = [2, 41]\nclass = 1", fillcolor="#43a2e6"] ;
369 -> 375 ;
376 [label="DATE <= 6.5\ngini = 0.048\nsamples = 41\nvalue = [1, 40]\nclass = 1", fillcolor="#3e9fe6"] ;
375 -> 376 ;
377 [label="gini = 0.219\nsamples = 8\nvalue = [1, 7]\nclass = 1", fillcolor="#55abe9"] ;
376 -> 377 ;
378 [label="gini = 0.0\nsamples = 33\nvalue = [0, 33]\nclass = 1", fillcolor="#399de5"] ;
376 -> 378 ;
379 [label="LONG <= 959.5\ngini = 0.5\nsamples = 2\nvalue = [1, 1]\nclass = 0", fillcolor="#ffffff"] ;
375 -> 379 ;
380 [label="gini = 0.0\nsamples = 1\nvalue = [0, 1]\nclass = 1", fillcolor="#399de5"] ;
379 -> 380 ;
381 [label="gini = 0.0\nsamples = 1\nvalue = [1, 0]\nclass = 0", fillcolor="#e58139"] ;
379 -> 381 ;
382 [label="MONTH <= 4.5\ngini = 0.5\nsamples = 4\nvalue = [2, 2]\nclass = 0", fillcolor="#ffffff"] ;
368 -> 382 ;
383 [label="gini = 0.0\nsamples = 2\nvalue = [2, 0]\nclass = 0", fillcolor="#e58139"] ;
382 -> 383 ;
384 [label="gini = 0.0\nsamples = 2\nvalue = [0, 2]\nclass = 1", fillcolor="#399de5"] ;
382 -> 384 ;
385 [label="YEAR <= 1984.5\ngini = 0.5\nsamples = 615\nvalue = [312, 303]\nclass = 0", fillcolor="#fefbf9"] ;
345 -> 385 ;
386 [label="LONG <= 36.0\ngini = 0.499\nsamples = 505\nvalue = [243, 262]\nclass = 1", fillcolor="#f1f8fd"] ;
385 -> 386 ;
387 [label="YEAR <= 1978.5\ngini = 0.34\nsamples = 23\nvalue = [5, 18]\nclass = 1", fillcolor="#70b8ec"] ;
386 -> 387 ;
388 [label="gini = 0.0\nsamples = 11\nvalue = [0, 11]\nclass = 1", fillcolor="#399de5"] ;
387 -> 388 ;
389 [label="DEPTH <= 144.0\ngini = 0.486\nsamples = 12\nvalue = [5, 7]\nclass = 1", fillcolor="#c6e3f8"] ;
387 -> 389 ;
390 [label="gini = 0.0\nsamples = 2\nvalue = [2, 0]\nclass = 0", fillcolor="#e58139"] ;
389 -> 390 ;
391 [label="DEPTH <= 187.5\ngini = 0.42\nsamples = 10\nvalue = [3, 7]\nclass = 1", fillcolor="#8ec7f0"] ;
389 -> 391 ;
392 [label="LONG <= 23.5\ngini = 0.219\nsamples = 8\nvalue = [1, 7]\nclass = 1", fillcolor="#55abe9"] ;
391 -> 392 ;
393 [label="gini = 0.444\nsamples = 3\nvalue = [1, 2]\nclass = 1", fillcolor="#9ccef2"] ;
392 -> 393 ;
394 [label="gini = 0.0\nsamples = 5\nvalue = [0, 5]\nclass = 1", fillcolor="#399de5"] ;
392 -> 394 ;
395 [label="gini = 0.0\nsamples = 2\nvalue = [2, 0]\nclass = 0", fillcolor="#e58139"] ;
391 -> 395 ;
396 [label="DATE <= 22.5\ngini = 0.5\nsamples = 482\nvalue = [238, 244]\nclass = 1", fillcolor="#fafdfe"] ;
386 -> 396 ;
397 [label="LAT <= 698.5\ngini = 0.498\nsamples = 340\nvalue = [180, 160]\nclass = 0", fillcolor="#fcf1e9"] ;
396 -> 397 ;
398 [label="gini = 0.0\nsamples = 3\nvalue = [3, 0]\nclass = 0", fillcolor="#e58139"] ;
397 -> 398 ;
399 [label="LAT <= 735.5\ngini = 0.499\nsamples = 337\nvalue = [177, 160]\nclass = 0", fillcolor="#fdf3ec"] ;
397 -> 399 ;
400 [label="LAT <= 724.0\ngini = 0.497\nsamples = 290\nvalue = [157, 133]\nclass = 0", fillcolor="#fbece1"] ;
399 -> 400 ;
401 [label="gini = 0.498\nsamples = 282\nvalue = [149, 133]\nclass = 0", fillcolor="#fcf1ea"] ;
400 -> 401 ;
402 [label="gini = 0.0\nsamples = 8\nvalue = [8, 0]\nclass = 0", fillcolor="#e58139"] ;
400 -> 402 ;
403 [label="YEAR <= 1977.5\ngini = 0.489\nsamples = 47\nvalue = [20, 27]\nclass = 1", fillcolor="#cce6f8"] ;
399 -> 403 ;
404 [label="gini = 0.208\nsamples = 17\nvalue = [2, 15]\nclass = 1", fillcolor="#53aae8"] ;
403 -> 404 ;
405 [label="gini = 0.48\nsamples = 30\nvalue = [18, 12]\nclass = 0", fillcolor="#f6d5bd"] ;
403 -> 405 ;
406 [label="DEPTH <= 134.5\ngini = 0.483\nsamples = 142\nvalue = [58, 84]\nclass = 1", fillcolor="#c2e1f7"] ;
396 -> 406 ;
407 [label="gini = 0.0\nsamples = 3\nvalue = [3, 0]\nclass = 0", fillcolor="#e58139"] ;
406 -> 407 ;
408 [label="DEPTH <= 152.5\ngini = 0.478\nsamples = 139\nvalue = [55, 84]\nclass = 1", fillcolor="#bbddf6"] ;
406 -> 408 ;
409 [label="LONG <= 241.0\ngini = 0.266\nsamples = 19\nvalue = [3, 16]\nclass = 1", fillcolor="#5eafea"] ;
408 -> 409 ;
410 [label="gini = 0.5\nsamples = 2\nvalue = [1, 1]\nclass = 0", fillcolor="#ffffff"] ;
409 -> 410 ;
411 [label="gini = 0.208\nsamples = 17\nvalue = [2, 15]\nclass = 1", fillcolor="#53aae8"] ;
409 -> 411 ;
412 [label="LAT <= 710.5\ngini = 0.491\nsamples = 120\nvalue = [52, 68]\nclass = 1", fillcolor="#d0e8f9"] ;
408 -> 412 ;
413 [label="gini = 0.454\nsamples = 69\nvalue = [24, 45]\nclass = 1", fillcolor="#a3d1f3"] ;
412 -> 413 ;
414 [label="gini = 0.495\nsamples = 51\nvalue = [28, 23]\nclass = 0", fillcolor="#fae8dc"] ;
412 -> 414 ;
415 [label="LAT <= 706.5\ngini = 0.468\nsamples = 110\nvalue = [69, 41]\nclass = 0", fillcolor="#f4ccaf"] ;
385 -> 415 ;
416 [label="DEPTH <= 202.5\ngini = 0.298\nsamples = 22\nvalue = [18, 4]\nclass = 0", fillcolor="#eb9d65"] ;
415 -> 416 ;
417 [label="gini = 0.0\nsamples = 9\nvalue = [9, 0]\nclass = 0", fillcolor="#e58139"] ;
416 -> 417 ;
418 [label="DATE <= 16.5\ngini = 0.426\nsamples = 13\nvalue = [9, 4]\nclass = 0", fillcolor="#f1b991"] ;
416 -> 418 ;
419 [label="DEPTH <= 233.5\ngini = 0.5\nsamples = 8\nvalue = [4, 4]\nclass = 0", fillcolor="#ffffff"] ;
418 -> 419 ;
420 [label="MONTH <= 1.5\ngini = 0.444\nsamples = 6\nvalue = [2, 4]\nclass = 1", fillcolor="#9ccef2"] ;
419 -> 420 ;
421 [label="gini = 0.0\nsamples = 1\nvalue = [1, 0]\nclass = 0", fillcolor="#e58139"] ;
420 -> 421 ;
422 [label="gini = 0.32\nsamples = 5\nvalue = [1, 4]\nclass = 1", fillcolor="#6ab6ec"] ;
420 -> 422 ;
423 [label="gini = 0.0\nsamples = 2\nvalue = [2, 0]\nclass = 0", fillcolor="#e58139"] ;
419 -> 423 ;
424 [label="gini = 0.0\nsamples = 5\nvalue = [5, 0]\nclass = 0", fillcolor="#e58139"] ;
418 -> 424 ;
425 [label="YEAR <= 1985.5\ngini = 0.487\nsamples = 88\nvalue = [51, 37]\nclass = 0", fillcolor="#f8dcc9"] ;
415 -> 425 ;
426 [label="LAT <= 741.0\ngini = 0.435\nsamples = 50\nvalue = [34, 16]\nclass = 0", fillcolor="#f1bc96"] ;
425 -> 426 ;
427 [label="DEPTH <= 216.0\ngini = 0.413\nsamples = 48\nvalue = [34, 14]\nclass = 0", fillcolor="#f0b58b"] ;
426 -> 427 ;
428 [label="DEPTH <= 180.5\ngini = 0.45\nsamples = 41\nvalue = [27, 14]\nclass = 0", fillcolor="#f2c2a0"] ;
427 -> 428 ;
429 [label="gini = 0.298\nsamples = 22\nvalue = [18, 4]\nclass = 0", fillcolor="#eb9d65"] ;
428 -> 429 ;
430 [label="gini = 0.499\nsamples = 19\nvalue = [9, 10]\nclass = 1", fillcolor="#ebf5fc"] ;
428 -> 430 ;
431 [label="gini = 0.0\nsamples = 7\nvalue = [7, 0]\nclass = 0", fillcolor="#e58139"] ;
427 -> 431 ;
432 [label="gini = 0.0\nsamples = 2\nvalue = [0, 2]\nclass = 1", fillcolor="#399de5"] ;
426 -> 432 ;
433 [label="LAT <= 965.5\ngini = 0.494\nsamples = 38\nvalue = [17, 21]\nclass = 1", fillcolor="#d9ecfa"] ;
425 -> 433 ;
434 [label="LAT <= 707.5\ngini = 0.472\nsamples = 34\nvalue = [13, 21]\nclass = 1", fillcolor="#b4daf5"] ;
433 -> 434 ;
435 [label="gini = 0.0\nsamples = 2\nvalue = [2, 0]\nclass = 0", fillcolor="#e58139"] ;
434 -> 435 ;
436 [label="LONG <= 371.0\ngini = 0.451\nsamples = 32\nvalue = [11, 21]\nclass = 1", fillcolor="#a1d0f3"] ;
434 -> 436 ;
437 [label="gini = 0.408\nsamples = 28\nvalue = [8, 20]\nclass = 1", fillcolor="#88c4ef"] ;
436 -> 437 ;
438 [label="gini = 0.375\nsamples = 4\nvalue = [3, 1]\nclass = 0", fillcolor="#eeab7b"] ;
436 -> 438 ;
439 [label="gini = 0.0\nsamples = 4\nvalue = [4, 0]\nclass = 0", fillcolor="#e58139"] ;
433 -> 439 ;
440 [label="LAT <= 170.5\ngini = 0.498\nsamples = 27101\nvalue = [12664, 14437]\nclass = 1", fillcolor="#e7f3fc"] ;
0 -> 440 [labeldistance=2.5, labelangle=-45, headlabel="False"] ;
441 [label="YEAR <= 2003.5\ngini = 0.358\nsamples = 3158\nvalue = [737, 2421]\nclass = 1", fillcolor="#75bbed"] ;
440 -> 441 ;
442 [label="YEAR <= 1995.5\ngini = 0.47\nsamples = 908\nvalue = [342, 566]\nclass = 1", fillcolor="#b1d8f5"] ;
441 -> 442 ;
443 [label="YEAR <= 1990.5\ngini = 0.397\nsamples = 450\nvalue = [123, 327]\nclass = 1", fillcolor="#83c2ef"] ;
442 -> 443 ;
444 [label="MONTH <= 11.5\ngini = 0.259\nsamples = 144\nvalue = [22, 122]\nclass = 1", fillcolor="#5dafea"] ;
443 -> 444 ;
445 [label="LONG <= 964.5\ngini = 0.234\nsamples = 133\nvalue = [18, 115]\nclass = 1", fillcolor="#58ace9"] ;
444 -> 445 ;
446 [label="DATE <= 1.5\ngini = 0.226\nsamples = 131\nvalue = [17, 114]\nclass = 1", fillcolor="#57ace9"] ;
445 -> 446 ;
447 [label="LONG <= 775.0\ngini = 0.444\nsamples = 6\nvalue = [2, 4]\nclass = 1", fillcolor="#9ccef2"] ;
446 -> 447 ;
448 [label="MONTH <= 2.0\ngini = 0.444\nsamples = 3\nvalue = [2, 1]\nclass = 0", fillcolor="#f2c09c"] ;
447 -> 448 ;
449 [label="gini = 0.0\nsamples = 1\nvalue = [1, 0]\nclass = 0", fillcolor="#e58139"] ;
448 -> 449 ;
450 [label="gini = 0.5\nsamples = 2\nvalue = [1, 1]\nclass = 0", fillcolor="#ffffff"] ;
448 -> 450 ;
451 [label="gini = 0.0\nsamples = 3\nvalue = [0, 3]\nclass = 1", fillcolor="#399de5"] ;
447 -> 451 ;
452 [label="LONG <= 936.5\ngini = 0.211\nsamples = 125\nvalue = [15, 110]\nclass = 1", fillcolor="#54aae9"] ;
446 -> 452 ;
453 [label="LONG <= 805.0\ngini = 0.158\nsamples = 81\nvalue = [7, 74]\nclass = 1", fillcolor="#4ca6e7"] ;
452 -> 453 ;
454 [label="gini = 0.24\nsamples = 43\nvalue = [6, 37]\nclass = 1", fillcolor="#59ade9"] ;
453 -> 454 ;
455 [label="gini = 0.051\nsamples = 38\nvalue = [1, 37]\nclass = 1", fillcolor="#3ea0e6"] ;
453 -> 455 ;
456 [label="LONG <= 937.5\ngini = 0.298\nsamples = 44\nvalue = [8, 36]\nclass = 1", fillcolor="#65b3eb"] ;
452 -> 456 ;
457 [label="gini = 0.48\nsamples = 5\nvalue = [3, 2]\nclass = 0", fillcolor="#f6d5bd"] ;
456 -> 457 ;
458 [label="gini = 0.224\nsamples = 39\nvalue = [5, 34]\nclass = 1", fillcolor="#56abe9"] ;
456 -> 458 ;
459 [label="LAT <= 151.5\ngini = 0.5\nsamples = 2\nvalue = [1, 1]\nclass = 0", fillcolor="#ffffff"] ;
445 -> 459 ;
460 [label="gini = 0.0\nsamples = 1\nvalue = [0, 1]\nclass = 1", fillcolor="#399de5"] ;
459 -> 460 ;
461 [label="gini = 0.0\nsamples = 1\nvalue = [1, 0]\nclass = 0", fillcolor="#e58139"] ;
459 -> 461 ;
462 [label="LAT <= 41.5\ngini = 0.463\nsamples = 11\nvalue = [4, 7]\nclass = 1", fillcolor="#aad5f4"] ;
444 -> 462 ;
463 [label="gini = 0.0\nsamples = 2\nvalue = [2, 0]\nclass = 0", fillcolor="#e58139"] ;
462 -> 463 ;
464 [label="LAT <= 123.5\ngini = 0.346\nsamples = 9\nvalue = [2, 7]\nclass = 1", fillcolor="#72b9ec"] ;
462 -> 464 ;
465 [label="LONG <= 942.5\ngini = 0.219\nsamples = 8\nvalue = [1, 7]\nclass = 1", fillcolor="#55abe9"] ;
464 -> 465 ;
466 [label="gini = 0.0\nsamples = 6\nvalue = [0, 6]\nclass = 1", fillcolor="#399de5"] ;
465 -> 466 ;
467 [label="DEPTH <= 108.5\ngini = 0.5\nsamples = 2\nvalue = [1, 1]\nclass = 0", fillcolor="#ffffff"] ;
465 -> 467 ;
468 [label="gini = 0.0\nsamples = 1\nvalue = [1, 0]\nclass = 0", fillcolor="#e58139"] ;
467 -> 468 ;
469 [label="gini = 0.0\nsamples = 1\nvalue = [0, 1]\nclass = 1", fillcolor="#399de5"] ;
467 -> 469 ;
470 [label="gini = 0.0\nsamples = 1\nvalue = [1, 0]\nclass = 0", fillcolor="#e58139"] ;
464 -> 470 ;
471 [label="DEPTH <= 123.5\ngini = 0.442\nsamples = 306\nvalue = [101, 205]\nclass = 1", fillcolor="#9bcdf2"] ;
443 -> 471 ;
472 [label="DEPTH <= 98.5\ngini = 0.43\nsamples = 294\nvalue = [92, 202]\nclass = 1", fillcolor="#93caf1"] ;
471 -> 472 ;
473 [label="DEPTH <= 83.5\ngini = 0.44\nsamples = 281\nvalue = [92, 189]\nclass = 1", fillcolor="#99cdf2"] ;
472 -> 473 ;
474 [label="LONG <= 930.5\ngini = 0.433\nsamples = 275\nvalue = [87, 188]\nclass = 1", fillcolor="#95caf1"] ;
473 -> 474 ;
475 [label="MONTH <= 10.5\ngini = 0.273\nsamples = 49\nvalue = [8, 41]\nclass = 1", fillcolor="#60b0ea"] ;
474 -> 475 ;
476 [label="gini = 0.201\nsamples = 44\nvalue = [5, 39]\nclass = 1", fillcolor="#52aae8"] ;
475 -> 476 ;
477 [label="gini = 0.48\nsamples = 5\nvalue = [3, 2]\nclass = 0", fillcolor="#f6d5bd"] ;
475 -> 477 ;
478 [label="YEAR <= 1993.5\ngini = 0.455\nsamples = 226\nvalue = [79, 147]\nclass = 1", fillcolor="#a3d2f3"] ;
474 -> 478 ;
479 [label="gini = 0.471\nsamples = 195\nvalue = [74, 121]\nclass = 1", fillcolor="#b2d9f5"] ;
478 -> 479 ;
480 [label="gini = 0.271\nsamples = 31\nvalue = [5, 26]\nclass = 1", fillcolor="#5fb0ea"] ;
478 -> 480 ;
481 [label="LAT <= 50.5\ngini = 0.278\nsamples = 6\nvalue = [5, 1]\nclass = 0", fillcolor="#ea9a61"] ;
473 -> 481 ;
482 [label="gini = 0.0\nsamples = 1\nvalue = [0, 1]\nclass = 1", fillcolor="#399de5"] ;
481 -> 482 ;
483 [label="gini = 0.0\nsamples = 5\nvalue = [5, 0]\nclass = 0", fillcolor="#e58139"] ;
481 -> 483 ;
484 [label="gini = 0.0\nsamples = 13\nvalue = [0, 13]\nclass = 1", fillcolor="#399de5"] ;
472 -> 484 ;
485 [label="YEAR <= 1991.5\ngini = 0.375\nsamples = 12\nvalue = [9, 3]\nclass = 0", fillcolor="#eeab7b"] ;
471 -> 485 ;
486 [label="gini = 0.0\nsamples = 2\nvalue = [0, 2]\nclass = 1", fillcolor="#399de5"] ;
485 -> 486 ;
487 [label="LAT <= 72.0\ngini = 0.18\nsamples = 10\nvalue = [9, 1]\nclass = 0", fillcolor="#e88f4f"] ;
485 -> 487 ;
488 [label="DEPTH <= 204.5\ngini = 0.5\nsamples = 2\nvalue = [1, 1]\nclass = 0", fillcolor="#ffffff"] ;
487 -> 488 ;
489 [label="gini = 0.0\nsamples = 1\nvalue = [0, 1]\nclass = 1", fillcolor="#399de5"] ;
488 -> 489 ;
490 [label="gini = 0.0\nsamples = 1\nvalue = [1, 0]\nclass = 0", fillcolor="#e58139"] ;
488 -> 490 ;
491 [label="gini = 0.0\nsamples = 8\nvalue = [8, 0]\nclass = 0", fillcolor="#e58139"] ;
487 -> 491 ;
492 [label="LAT <= 156.5\ngini = 0.499\nsamples = 458\nvalue = [219, 239]\nclass = 1", fillcolor="#eef7fd"] ;
442 -> 492 ;
493 [label="LONG <= 949.5\ngini = 0.5\nsamples = 443\nvalue = [218, 225]\nclass = 1", fillcolor="#f9fcfe"] ;
492 -> 493 ;
494 [label="DATE <= 25.5\ngini = 0.498\nsamples = 394\nvalue = [184, 210]\nclass = 1", fillcolor="#e6f3fc"] ;
493 -> 494 ;
495 [label="LAT <= 119.5\ngini = 0.5\nsamples = 311\nvalue = [157, 154]\nclass = 0", fillcolor="#fffdfb"] ;
494 -> 495 ;
496 [label="DATE <= 4.5\ngini = 0.499\nsamples = 265\nvalue = [127, 138]\nclass = 1", fillcolor="#eff7fd"] ;
495 -> 496 ;
497 [label="MONTH <= 11.5\ngini = 0.467\nsamples = 35\nvalue = [22, 13]\nclass = 0", fillcolor="#f4cbae"] ;
496 -> 497 ;
498 [label="gini = 0.42\nsamples = 30\nvalue = [21, 9]\nclass = 0", fillcolor="#f0b78e"] ;
497 -> 498 ;
499 [label="gini = 0.32\nsamples = 5\nvalue = [1, 4]\nclass = 1", fillcolor="#6ab6ec"] ;
497 -> 499 ;
500 [label="MONTH <= 6.5\ngini = 0.496\nsamples = 230\nvalue = [105, 125]\nclass = 1", fillcolor="#dfeffb"] ;
496 -> 500 ;
501 [label="gini = 0.5\nsamples = 125\nvalue = [64, 61]\nclass = 0", fillcolor="#fef9f6"] ;
500 -> 501 ;
502 [label="gini = 0.476\nsamples = 105\nvalue = [41, 64]\nclass = 1", fillcolor="#b8dcf6"] ;
500 -> 502 ;
503 [label="MONTH <= 4.5\ngini = 0.454\nsamples = 46\nvalue = [30, 16]\nclass = 0", fillcolor="#f3c4a3"] ;
495 -> 503 ;
504 [label="DEPTH <= 72.0\ngini = 0.133\nsamples = 14\nvalue = [13, 1]\nclass = 0", fillcolor="#e78b48"] ;
503 -> 504 ;
505 [label="gini = 0.0\nsamples = 13\nvalue = [13, 0]\nclass = 0", fillcolor="#e58139"] ;
504 -> 505 ;
506 [label="gini = 0.0\nsamples = 1\nvalue = [0, 1]\nclass = 1", fillcolor="#399de5"] ;
504 -> 506 ;
507 [label="DEPTH <= 66.0\ngini = 0.498\nsamples = 32\nvalue = [17, 15]\nclass = 0", fillcolor="#fcf0e8"] ;
503 -> 507 ;
508 [label="gini = 0.497\nsamples = 28\nvalue = [13, 15]\nclass = 1", fillcolor="#e5f2fc"] ;
507 -> 508 ;
509 [label="gini = 0.0\nsamples = 4\nvalue = [4, 0]\nclass = 0", fillcolor="#e58139"] ;
507 -> 509 ;
510 [label="YEAR <= 1998.5\ngini = 0.439\nsamples = 83\nvalue = [27, 56]\nclass = 1", fillcolor="#98ccf2"] ;
494 -> 510 ;
511 [label="MONTH <= 3.0\ngini = 0.5\nsamples = 33\nvalue = [16, 17]\nclass = 1", fillcolor="#f3f9fd"] ;
510 -> 511 ;
512 [label="MONTH <= 1.5\ngini = 0.42\nsamples = 10\nvalue = [7, 3]\nclass = 0", fillcolor="#f0b78e"] ;
511 -> 512 ;
513 [label="gini = 0.0\nsamples = 2\nvalue = [0, 2]\nclass = 1", fillcolor="#399de5"] ;
512 -> 513 ;
514 [label="gini = 0.219\nsamples = 8\nvalue = [7, 1]\nclass = 0", fillcolor="#e99355"] ;
512 -> 514 ;
515 [label="LAT <= 15.0\ngini = 0.476\nsamples = 23\nvalue = [9, 14]\nclass = 1", fillcolor="#b8dcf6"] ;
511 -> 515 ;
516 [label="gini = 0.0\nsamples = 1\nvalue = [1, 0]\nclass = 0", fillcolor="#e58139"] ;
515 -> 516 ;
517 [label="gini = 0.463\nsamples = 22\nvalue = [8, 14]\nclass = 1", fillcolor="#aad5f4"] ;
515 -> 517 ;
518 [label="LONG <= 941.0\ngini = 0.343\nsamples = 50\nvalue = [11, 39]\nclass = 1", fillcolor="#71b9ec"] ;
510 -> 518 ;
519 [label="MONTH <= 1.5\ngini = 0.399\nsamples = 40\nvalue = [11, 29]\nclass = 1", fillcolor="#84c2ef"] ;
518 -> 519 ;
520 [label="gini = 0.0\nsamples = 8\nvalue = [0, 8]\nclass = 1", fillcolor="#399de5"] ;
519 -> 520 ;
521 [label="gini = 0.451\nsamples = 32\nvalue = [11, 21]\nclass = 1", fillcolor="#a1d0f3"] ;
519 -> 521 ;
522 [label="gini = 0.0\nsamples = 10\nvalue = [0, 10]\nclass = 1", fillcolor="#399de5"] ;
518 -> 522 ;
523 [label="LONG <= 962.5\ngini = 0.425\nsamples = 49\nvalue = [34, 15]\nclass = 0", fillcolor="#f0b990"] ;
493 -> 523 ;
524 [label="DEPTH <= 39.5\ngini = 0.381\nsamples = 43\nvalue = [32, 11]\nclass = 0", fillcolor="#eeac7d"] ;
523 -> 524 ;
525 [label="MONTH <= 10.5\ngini = 0.291\nsamples = 34\nvalue = [28, 6]\nclass = 0", fillcolor="#eb9c63"] ;
524 -> 525 ;
526 [label="DEPTH <= 25.5\ngini = 0.147\nsamples = 25\nvalue = [23, 2]\nclass = 0", fillcolor="#e78c4a"] ;
525 -> 526 ;
527 [label="gini = 0.375\nsamples = 4\nvalue = [3, 1]\nclass = 0", fillcolor="#eeab7b"] ;
526 -> 527 ;
528 [label="gini = 0.091\nsamples = 21\nvalue = [20, 1]\nclass = 0", fillcolor="#e68743"] ;
526 -> 528 ;
529 [label="YEAR <= 1999.0\ngini = 0.494\nsamples = 9\nvalue = [5, 4]\nclass = 0", fillcolor="#fae6d7"] ;
525 -> 529 ;
530 [label="gini = 0.0\nsamples = 4\nvalue = [4, 0]\nclass = 0", fillcolor="#e58139"] ;
529 -> 530 ;
531 [label="gini = 0.32\nsamples = 5\nvalue = [1, 4]\nclass = 1", fillcolor="#6ab6ec"] ;
529 -> 531 ;
532 [label="LAT <= 64.5\ngini = 0.494\nsamples = 9\nvalue = [4, 5]\nclass = 1", fillcolor="#d7ebfa"] ;
524 -> 532 ;
533 [label="gini = 0.0\nsamples = 3\nvalue = [3, 0]\nclass = 0", fillcolor="#e58139"] ;
532 -> 533 ;
534 [label="DEPTH <= 119.5\ngini = 0.278\nsamples = 6\nvalue = [1, 5]\nclass = 1", fillcolor="#61b1ea"] ;
532 -> 534 ;
535 [label="gini = 0.5\nsamples = 2\nvalue = [1, 1]\nclass = 0", fillcolor="#ffffff"] ;
534 -> 535 ;
536 [label="gini = 0.0\nsamples = 4\nvalue = [0, 4]\nclass = 1", fillcolor="#399de5"] ;
534 -> 536 ;
537 [label="LAT <= 131.5\ngini = 0.444\nsamples = 6\nvalue = [2, 4]\nclass = 1", fillcolor="#9ccef2"] ;
523 -> 537 ;
538 [label="LAT <= 80.0\ngini = 0.444\nsamples = 3\nvalue = [2, 1]\nclass = 0", fillcolor="#f2c09c"] ;
537 -> 538 ;
539 [label="gini = 0.0\nsamples = 1\nvalue = [0, 1]\nclass = 1", fillcolor="#399de5"] ;
538 -> 539 ;
540 [label="gini = 0.0\nsamples = 2\nvalue = [2, 0]\nclass = 0", fillcolor="#e58139"] ;
538 -> 540 ;
541 [label="gini = 0.0\nsamples = 3\nvalue = [0, 3]\nclass = 1", fillcolor="#399de5"] ;
537 -> 541 ;
542 [label="DATE <= 7.5\ngini = 0.124\nsamples = 15\nvalue = [1, 14]\nclass = 1", fillcolor="#47a4e7"] ;
492 -> 542 ;
543 [label="MONTH <= 7.5\ngini = 0.375\nsamples = 4\nvalue = [1, 3]\nclass = 1", fillcolor="#7bbeee"] ;
542 -> 543 ;
544 [label="gini = 0.0\nsamples = 1\nvalue = [1, 0]\nclass = 0", fillcolor="#e58139"] ;
543 -> 544 ;
545 [label="gini = 0.0\nsamples = 3\nvalue = [0, 3]\nclass = 1", fillcolor="#399de5"] ;
543 -> 545 ;
546 [label="gini = 0.0\nsamples = 11\nvalue = [0, 11]\nclass = 1", fillcolor="#399de5"] ;
542 -> 546 ;
547 [label="LONG <= 847.5\ngini = 0.289\nsamples = 2250\nvalue = [395, 1855]\nclass = 1", fillcolor="#63b2eb"] ;
441 -> 547 ;
548 [label="LONG <= 733.0\ngini = 0.482\nsamples = 136\nvalue = [55, 81]\nclass = 1", fillcolor="#bfe0f7"] ;
547 -> 548 ;
549 [label="DEPTH <= 14.5\ngini = 0.37\nsamples = 94\nvalue = [23, 71]\nclass = 1", fillcolor="#79bded"] ;
548 -> 549 ;
550 [label="DEPTH <= 10.5\ngini = 0.495\nsamples = 29\nvalue = [13, 16]\nclass = 1", fillcolor="#daedfa"] ;
549 -> 550 ;
551 [label="DATE <= 8.5\ngini = 0.434\nsamples = 22\nvalue = [7, 15]\nclass = 1", fillcolor="#95cbf1"] ;
550 -> 551 ;
552 [label="gini = 0.0\nsamples = 3\nvalue = [3, 0]\nclass = 0", fillcolor="#e58139"] ;
551 -> 552 ;
553 [label="DATE <= 24.5\ngini = 0.332\nsamples = 19\nvalue = [4, 15]\nclass = 1", fillcolor="#6eb7ec"] ;
551 -> 553 ;
554 [label="LONG <= 692.0\ngini = 0.219\nsamples = 16\nvalue = [2, 14]\nclass = 1", fillcolor="#55abe9"] ;
553 -> 554 ;
555 [label="gini = 0.0\nsamples = 9\nvalue = [0, 9]\nclass = 1", fillcolor="#399de5"] ;
554 -> 555 ;
556 [label="gini = 0.408\nsamples = 7\nvalue = [2, 5]\nclass = 1", fillcolor="#88c4ef"] ;
554 -> 556 ;
557 [label="MONTH <= 10.0\ngini = 0.444\nsamples = 3\nvalue = [2, 1]\nclass = 0", fillcolor="#f2c09c"] ;
553 -> 557 ;
558 [label="gini = 0.0\nsamples = 2\nvalue = [2, 0]\nclass = 0", fillcolor="#e58139"] ;
557 -> 558 ;
559 [label="gini = 0.0\nsamples = 1\nvalue = [0, 1]\nclass = 1", fillcolor="#399de5"] ;
557 -> 559 ;
560 [label="MONTH <= 10.0\ngini = 0.245\nsamples = 7\nvalue = [6, 1]\nclass = 0", fillcolor="#e9965a"] ;
550 -> 560 ;
561 [label="gini = 0.0\nsamples = 5\nvalue = [5, 0]\nclass = 0", fillcolor="#e58139"] ;
560 -> 561 ;
562 [label="MONTH <= 11.5\ngini = 0.5\nsamples = 2\nvalue = [1, 1]\nclass = 0", fillcolor="#ffffff"] ;
560 -> 562 ;
563 [label="gini = 0.0\nsamples = 1\nvalue = [0, 1]\nclass = 1", fillcolor="#399de5"] ;
562 -> 563 ;
564 [label="gini = 0.0\nsamples = 1\nvalue = [1, 0]\nclass = 0", fillcolor="#e58139"] ;
562 -> 564 ;
565 [label="LONG <= 710.5\ngini = 0.26\nsamples = 65\nvalue = [10, 55]\nclass = 1", fillcolor="#5dafea"] ;
549 -> 565 ;
566 [label="DATE <= 0.5\ngini = 0.188\nsamples = 57\nvalue = [6, 51]\nclass = 1", fillcolor="#50a9e8"] ;
565 -> 566 ;
567 [label="gini = 0.0\nsamples = 1\nvalue = [1, 0]\nclass = 0", fillcolor="#e58139"] ;
566 -> 567 ;
568 [label="DATE <= 29.5\ngini = 0.163\nsamples = 56\nvalue = [5, 51]\nclass = 1", fillcolor="#4ca7e8"] ;
566 -> 568 ;
569 [label="LAT <= 76.5\ngini = 0.135\nsamples = 55\nvalue = [4, 51]\nclass = 1", fillcolor="#49a5e7"] ;
568 -> 569 ;
570 [label="gini = 0.231\nsamples = 30\nvalue = [4, 26]\nclass = 1", fillcolor="#57ace9"] ;
569 -> 570 ;
571 [label="gini = 0.0\nsamples = 25\nvalue = [0, 25]\nclass = 1", fillcolor="#399de5"] ;
569 -> 571 ;
572 [label="gini = 0.0\nsamples = 1\nvalue = [1, 0]\nclass = 0", fillcolor="#e58139"] ;
568 -> 572 ;
573 [label="LAT <= 55.0\ngini = 0.5\nsamples = 8\nvalue = [4, 4]\nclass = 0", fillcolor="#ffffff"] ;
565 -> 573 ;
574 [label="gini = 0.0\nsamples = 2\nvalue = [2, 0]\nclass = 0", fillcolor="#e58139"] ;
573 -> 574 ;
575 [label="DEPTH <= 16.5\ngini = 0.444\nsamples = 6\nvalue = [2, 4]\nclass = 1", fillcolor="#9ccef2"] ;
573 -> 575 ;
576 [label="MONTH <= 10.5\ngini = 0.444\nsamples = 3\nvalue = [2, 1]\nclass = 0", fillcolor="#f2c09c"] ;
575 -> 576 ;
577 [label="gini = 0.0\nsamples = 2\nvalue = [2, 0]\nclass = 0", fillcolor="#e58139"] ;
576 -> 577 ;
578 [label="gini = 0.0\nsamples = 1\nvalue = [0, 1]\nclass = 1", fillcolor="#399de5"] ;
576 -> 578 ;
579 [label="gini = 0.0\nsamples = 3\nvalue = [0, 3]\nclass = 1", fillcolor="#399de5"] ;
575 -> 579 ;
580 [label="DEPTH <= 40.0\ngini = 0.363\nsamples = 42\nvalue = [32, 10]\nclass = 0", fillcolor="#eda877"] ;
548 -> 580 ;
581 [label="LAT <= 93.5\ngini = 0.295\nsamples = 39\nvalue = [32, 7]\nclass = 0", fillcolor="#eb9d64"] ;
580 -> 581 ;
582 [label="YEAR <= 2008.0\ngini = 0.473\nsamples = 13\nvalue = [8, 5]\nclass = 0", fillcolor="#f5d0b5"] ;
581 -> 582 ;
583 [label="LONG <= 775.0\ngini = 0.219\nsamples = 8\nvalue = [7, 1]\nclass = 0", fillcolor="#e99355"] ;
582 -> 583 ;
584 [label="gini = 0.0\nsamples = 5\nvalue = [5, 0]\nclass = 0", fillcolor="#e58139"] ;
583 -> 584 ;
585 [label="DATE <= 9.5\ngini = 0.444\nsamples = 3\nvalue = [2, 1]\nclass = 0", fillcolor="#f2c09c"] ;
583 -> 585 ;
586 [label="gini = 0.0\nsamples = 2\nvalue = [2, 0]\nclass = 0", fillcolor="#e58139"] ;
585 -> 586 ;
587 [label="gini = 0.0\nsamples = 1\nvalue = [0, 1]\nclass = 1", fillcolor="#399de5"] ;
585 -> 587 ;
588 [label="YEAR <= 2016.5\ngini = 0.32\nsamples = 5\nvalue = [1, 4]\nclass = 1", fillcolor="#6ab6ec"] ;
582 -> 588 ;
589 [label="gini = 0.0\nsamples = 4\nvalue = [0, 4]\nclass = 1", fillcolor="#399de5"] ;
588 -> 589 ;
590 [label="gini = 0.0\nsamples = 1\nvalue = [1, 0]\nclass = 0", fillcolor="#e58139"] ;
588 -> 590 ;
591 [label="YEAR <= 2006.5\ngini = 0.142\nsamples = 26\nvalue = [24, 2]\nclass = 0", fillcolor="#e78c49"] ;
581 -> 591 ;
592 [label="DATE <= 28.0\ngini = 0.5\nsamples = 2\nvalue = [1, 1]\nclass = 0", fillcolor="#ffffff"] ;
591 -> 592 ;
593 [label="gini = 0.0\nsamples = 1\nvalue = [0, 1]\nclass = 1", fillcolor="#399de5"] ;
592 -> 593 ;
594 [label="gini = 0.0\nsamples = 1\nvalue = [1, 0]\nclass = 0", fillcolor="#e58139"] ;
592 -> 594 ;
595 [label="DEPTH <= 34.0\ngini = 0.08\nsamples = 24\nvalue = [23, 1]\nclass = 0", fillcolor="#e68642"] ;
591 -> 595 ;
596 [label="gini = 0.0\nsamples = 22\nvalue = [22, 0]\nclass = 0", fillcolor="#e58139"] ;
595 -> 596 ;
597 [label="MONTH <= 5.5\ngini = 0.5\nsamples = 2\nvalue = [1, 1]\nclass = 0", fillcolor="#ffffff"] ;
595 -> 597 ;
598 [label="gini = 0.0\nsamples = 1\nvalue = [1, 0]\nclass = 0", fillcolor="#e58139"] ;
597 -> 598 ;
599 [label="gini = 0.0\nsamples = 1\nvalue = [0, 1]\nclass = 1", fillcolor="#399de5"] ;
597 -> 599 ;
600 [label="gini = 0.0\nsamples = 3\nvalue = [0, 3]\nclass = 1", fillcolor="#399de5"] ;
580 -> 600 ;
601 [label="YEAR <= 2008.5\ngini = 0.27\nsamples = 2114\nvalue = [340, 1774]\nclass = 1", fillcolor="#5fb0ea"] ;
547 -> 601 ;
602 [label="DATE <= 25.5\ngini = 0.309\nsamples = 1763\nvalue = [337, 1426]\nclass = 1", fillcolor="#68b4eb"] ;
601 -> 602 ;
603 [label="YEAR <= 2004.5\ngini = 0.391\nsamples = 1003\nvalue = [267, 736]\nclass = 1", fillcolor="#81c1ee"] ;
602 -> 603 ;
604 [label="MONTH <= 10.5\ngini = 0.497\nsamples = 65\nvalue = [35, 30]\nclass = 0", fillcolor="#fbede3"] ;
603 -> 604 ;
605 [label="LONG <= 939.5\ngini = 0.5\nsamples = 59\nvalue = [29, 30]\nclass = 1", fillcolor="#f8fcfe"] ;
604 -> 605 ;
606 [label="DEPTH <= 37.5\ngini = 0.482\nsamples = 42\nvalue = [25, 17]\nclass = 0", fillcolor="#f7d7c0"] ;
605 -> 606 ;
607 [label="gini = 0.498\nsamples = 36\nvalue = [19, 17]\nclass = 0", fillcolor="#fcf2ea"] ;
606 -> 607 ;
608 [label="gini = 0.0\nsamples = 6\nvalue = [6, 0]\nclass = 0", fillcolor="#e58139"] ;
606 -> 608 ;
609 [label="DATE <= 6.0\ngini = 0.36\nsamples = 17\nvalue = [4, 13]\nclass = 1", fillcolor="#76bbed"] ;
605 -> 609 ;
610 [label="gini = 0.0\nsamples = 1\nvalue = [1, 0]\nclass = 0", fillcolor="#e58139"] ;
609 -> 610 ;
611 [label="gini = 0.305\nsamples = 16\nvalue = [3, 13]\nclass = 1", fillcolor="#67b4eb"] ;
609 -> 611 ;
612 [label="gini = 0.0\nsamples = 6\nvalue = [6, 0]\nclass = 0", fillcolor="#e58139"] ;
604 -> 612 ;
613 [label="MONTH <= 2.5\ngini = 0.372\nsamples = 938\nvalue = [232, 706]\nclass = 1", fillcolor="#7abdee"] ;
603 -> 613 ;
614 [label="DATE <= 19.5\ngini = 0.294\nsamples = 407\nvalue = [73, 334]\nclass = 1", fillcolor="#64b2eb"] ;
613 -> 614 ;
615 [label="DATE <= 6.5\ngini = 0.242\nsamples = 319\nvalue = [45, 274]\nclass = 1", fillcolor="#5aade9"] ;
614 -> 615 ;
616 [label="gini = 0.09\nsamples = 85\nvalue = [4, 81]\nclass = 1", fillcolor="#43a2e6"] ;
615 -> 616 ;
617 [label="gini = 0.289\nsamples = 234\nvalue = [41, 193]\nclass = 1", fillcolor="#63b2eb"] ;
615 -> 617 ;
618 [label="DATE <= 21.5\ngini = 0.434\nsamples = 88\nvalue = [28, 60]\nclass = 1", fillcolor="#95cbf1"] ;
614 -> 618 ;
619 [label="gini = 0.497\nsamples = 28\nvalue = [15, 13]\nclass = 0", fillcolor="#fceee5"] ;
618 -> 619 ;
620 [label="gini = 0.339\nsamples = 60\nvalue = [13, 47]\nclass = 1", fillcolor="#70b8ec"] ;
618 -> 620 ;
621 [label="DEPTH <= 24.5\ngini = 0.42\nsamples = 531\nvalue = [159, 372]\nclass = 1", fillcolor="#8ec7f0"] ;
613 -> 621 ;
622 [label="MONTH <= 10.5\ngini = 0.489\nsamples = 108\nvalue = [46, 62]\nclass = 1", fillcolor="#cce6f8"] ;
621 -> 622 ;
623 [label="gini = 0.498\nsamples = 99\nvalue = [46, 53]\nclass = 1", fillcolor="#e5f2fc"] ;
622 -> 623 ;
624 [label="gini = 0.0\nsamples = 9\nvalue = [0, 9]\nclass = 1", fillcolor="#399de5"] ;
622 -> 624 ;
625 [label="LONG <= 935.5\ngini = 0.392\nsamples = 423\nvalue = [113, 310]\nclass = 1", fillcolor="#81c1ee"] ;
621 -> 625 ;
626 [label="gini = 0.344\nsamples = 272\nvalue = [60, 212]\nclass = 1", fillcolor="#71b9ec"] ;
625 -> 626 ;
627 [label="gini = 0.456\nsamples = 151\nvalue = [53, 98]\nclass = 1", fillcolor="#a4d2f3"] ;
625 -> 627 ;
628 [label="MONTH <= 1.5\ngini = 0.167\nsamples = 760\nvalue = [70, 690]\nclass = 1", fillcolor="#4da7e8"] ;
602 -> 628 ;
629 [label="REF <= 10.5\ngini = 0.093\nsamples = 470\nvalue = [23, 447]\nclass = 1", fillcolor="#43a2e6"] ;
628 -> 629 ;
630 [label="gini = 0.0\nsamples = 1\nvalue = [1, 0]\nclass = 0", fillcolor="#e58139"] ;
629 -> 630 ;
631 [label="DEPTH <= 6.5\ngini = 0.089\nsamples = 469\nvalue = [22, 447]\nclass = 1", fillcolor="#43a2e6"] ;
629 -> 631 ;
632 [label="gini = 0.0\nsamples = 1\nvalue = [1, 0]\nclass = 0", fillcolor="#e58139"] ;
631 -> 632 ;
633 [label="DATE <= 28.5\ngini = 0.086\nsamples = 468\nvalue = [21, 447]\nclass = 1", fillcolor="#42a2e6"] ;
631 -> 633 ;
634 [label="gini = 0.069\nsamples = 364\nvalue = [13, 351]\nclass = 1", fillcolor="#40a1e6"] ;
633 -> 634 ;
635 [label="gini = 0.142\nsamples = 104\nvalue = [8, 96]\nclass = 1", fillcolor="#49a5e7"] ;
633 -> 635 ;
636 [label="MONTH <= 11.5\ngini = 0.272\nsamples = 290\nvalue = [47, 243]\nclass = 1", fillcolor="#5fb0ea"] ;
628 -> 636 ;
637 [label="LONG <= 916.5\ngini = 0.413\nsamples = 127\nvalue = [37, 90]\nclass = 1", fillcolor="#8ac5f0"] ;
636 -> 637 ;
638 [label="gini = 0.0\nsamples = 12\nvalue = [0, 12]\nclass = 1", fillcolor="#399de5"] ;
637 -> 638 ;
639 [label="DATE <= 26.5\ngini = 0.436\nsamples = 115\nvalue = [37, 78]\nclass = 1", fillcolor="#97cbf1"] ;
637 -> 639 ;
640 [label="gini = 0.238\nsamples = 29\nvalue = [4, 25]\nclass = 1", fillcolor="#59ade9"] ;
639 -> 640 ;
641 [label="gini = 0.473\nsamples = 86\nvalue = [33, 53]\nclass = 1", fillcolor="#b4daf5"] ;
639 -> 641 ;
642 [label="LONG <= 920.5\ngini = 0.115\nsamples = 163\nvalue = [10, 153]\nclass = 1", fillcolor="#46a3e7"] ;
636 -> 642 ;
643 [label="DATE <= 28.5\ngini = 0.444\nsamples = 12\nvalue = [4, 8]\nclass = 1", fillcolor="#9ccef2"] ;
642 -> 643 ;
644 [label="gini = 0.444\nsamples = 6\nvalue = [4, 2]\nclass = 0", fillcolor="#f2c09c"] ;
643 -> 644 ;
645 [label="gini = 0.0\nsamples = 6\nvalue = [0, 6]\nclass = 1", fillcolor="#399de5"] ;
643 -> 645 ;
646 [label="DEPTH <= 3.5\ngini = 0.076\nsamples = 151\nvalue = [6, 145]\nclass = 1", fillcolor="#41a1e6"] ;
642 -> 646 ;
647 [label="gini = 0.5\nsamples = 2\nvalue = [1, 1]\nclass = 0", fillcolor="#ffffff"] ;
646 -> 647 ;
648 [label="gini = 0.065\nsamples = 149\nvalue = [5, 144]\nclass = 1", fillcolor="#40a0e6"] ;
646 -> 648 ;
649 [label="MONTH <= 1.5\ngini = 0.017\nsamples = 351\nvalue = [3, 348]\nclass = 1", fillcolor="#3b9ee5"] ;
601 -> 649 ;
650 [label="DEPTH <= 12.5\ngini = 0.111\nsamples = 34\nvalue = [2, 32]\nclass = 1", fillcolor="#45a3e7"] ;
649 -> 650 ;
651 [label="DATE <= 28.5\ngini = 0.375\nsamples = 8\nvalue = [2, 6]\nclass = 1", fillcolor="#7bbeee"] ;
650 -> 651 ;
652 [label="LAT <= 101.0\ngini = 0.245\nsamples = 7\nvalue = [1, 6]\nclass = 1", fillcolor="#5aade9"] ;
651 -> 652 ;
653 [label="gini = 0.0\nsamples = 5\nvalue = [0, 5]\nclass = 1", fillcolor="#399de5"] ;
652 -> 653 ;
654 [label="YEAR <= 2017.0\ngini = 0.5\nsamples = 2\nvalue = [1, 1]\nclass = 0", fillcolor="#ffffff"] ;
652 -> 654 ;
655 [label="gini = 0.0\nsamples = 1\nvalue = [1, 0]\nclass = 0", fillcolor="#e58139"] ;
654 -> 655 ;
656 [label="gini = 0.0\nsamples = 1\nvalue = [0, 1]\nclass = 1", fillcolor="#399de5"] ;
654 -> 656 ;
657 [label="gini = 0.0\nsamples = 1\nvalue = [1, 0]\nclass = 0", fillcolor="#e58139"] ;
651 -> 657 ;
658 [label="gini = 0.0\nsamples = 26\nvalue = [0, 26]\nclass = 1", fillcolor="#399de5"] ;
650 -> 658 ;
659 [label="LAT <= 135.5\ngini = 0.006\nsamples = 317\nvalue = [1, 316]\nclass = 1", fillcolor="#3a9de5"] ;
649 -> 659 ;
660 [label="gini = 0.0\nsamples = 274\nvalue = [0, 274]\nclass = 1", fillcolor="#399de5"] ;
659 -> 660 ;
661 [label="LAT <= 136.5\ngini = 0.045\nsamples = 43\nvalue = [1, 42]\nclass = 1", fillcolor="#3e9fe6"] ;
659 -> 661 ;
662 [label="DATE <= 8.5\ngini = 0.32\nsamples = 5\nvalue = [1, 4]\nclass = 1", fillcolor="#6ab6ec"] ;
661 -> 662 ;
663 [label="MONTH <= 6.0\ngini = 0.5\nsamples = 2\nvalue = [1, 1]\nclass = 0", fillcolor="#ffffff"] ;
662 -> 663 ;
664 [label="gini = 0.0\nsamples = 1\nvalue = [1, 0]\nclass = 0", fillcolor="#e58139"] ;
663 -> 664 ;
665 [label="gini = 0.0\nsamples = 1\nvalue = [0, 1]\nclass = 1", fillcolor="#399de5"] ;
663 -> 665 ;
666 [label="gini = 0.0\nsamples = 3\nvalue = [0, 3]\nclass = 1", fillcolor="#399de5"] ;
662 -> 666 ;
667 [label="gini = 0.0\nsamples = 38\nvalue = [0, 38]\nclass = 1", fillcolor="#399de5"] ;
661 -> 667 ;
668 [label="LONG <= 108.5\ngini = 0.5\nsamples = 23943\nvalue = [11927, 12016]\nclass = 1", fillcolor="#fefeff"] ;
440 -> 668 ;
669 [label="DEPTH <= 0.5\ngini = 0.425\nsamples = 5039\nvalue = [1545, 3494]\nclass = 1", fillcolor="#91c8f0"] ;
668 -> 669 ;
670 [label="MONTH <= 11.5\ngini = 0.47\nsamples = 3004\nvalue = [1133, 1871]\nclass = 1", fillcolor="#b1d8f5"] ;
669 -> 670 ;
671 [label="LONG <= 88.5\ngini = 0.486\nsamples = 2359\nvalue = [980, 1379]\nclass = 1", fillcolor="#c6e3f7"] ;
670 -> 671 ;
672 [label="LAT <= 973.5\ngini = 0.474\nsamples = 1992\nvalue = [771, 1221]\nclass = 1", fillcolor="#b6dbf5"] ;
671 -> 672 ;
673 [label="MONTH <= 2.5\ngini = 0.467\nsamples = 1902\nvalue = [708, 1194]\nclass = 1", fillcolor="#aed7f4"] ;
672 -> 673 ;
674 [label="LAT <= 898.5\ngini = 0.421\nsamples = 737\nvalue = [222, 515]\nclass = 1", fillcolor="#8ec7f0"] ;
673 -> 674 ;
675 [label="YEAR <= 1989.0\ngini = 0.137\nsamples = 27\nvalue = [2, 25]\nclass = 1", fillcolor="#49a5e7"] ;
674 -> 675 ;
676 [label="gini = 0.0\nsamples = 1\nvalue = [1, 0]\nclass = 0", fillcolor="#e58139"] ;
675 -> 676 ;
677 [label="gini = 0.074\nsamples = 26\nvalue = [1, 25]\nclass = 1", fillcolor="#41a1e6"] ;
675 -> 677 ;
678 [label="YEAR <= 2004.5\ngini = 0.428\nsamples = 710\nvalue = [220, 490]\nclass = 1", fillcolor="#92c9f1"] ;
674 -> 678 ;
679 [label="gini = 0.492\nsamples = 39\nvalue = [22, 17]\nclass = 0", fillcolor="#f9e2d2"] ;
678 -> 679 ;
680 [label="gini = 0.416\nsamples = 671\nvalue = [198, 473]\nclass = 1", fillcolor="#8cc6f0"] ;
678 -> 680 ;
681 [label="LONG <= 28.5\ngini = 0.486\nsamples = 1165\nvalue = [486, 679]\nclass = 1", fillcolor="#c7e3f8"] ;
673 -> 681 ;
682 [label="LAT <= 709.0\ngini = 0.424\nsamples = 440\nvalue = [134, 306]\nclass = 1", fillcolor="#90c8f0"] ;
681 -> 682 ;
683 [label="gini = 0.298\nsamples = 55\nvalue = [10, 45]\nclass = 1", fillcolor="#65b3eb"] ;
682 -> 683 ;
684 [label="gini = 0.437\nsamples = 385\nvalue = [124, 261]\nclass = 1", fillcolor="#97ccf1"] ;
682 -> 684 ;
685 [label="YEAR <= 1995.5\ngini = 0.5\nsamples = 725\nvalue = [352, 373]\nclass = 1", fillcolor="#f4f9fe"] ;
681 -> 685 ;
686 [label="gini = 0.185\nsamples = 29\nvalue = [3, 26]\nclass = 1", fillcolor="#50a8e8"] ;
685 -> 686 ;
687 [label="gini = 0.5\nsamples = 696\nvalue = [349, 347]\nclass = 0", fillcolor="#fffefe"] ;
685 -> 687 ;
688 [label="LONG <= 22.5\ngini = 0.42\nsamples = 90\nvalue = [63, 27]\nclass = 0", fillcolor="#f0b78e"] ;
672 -> 688 ;
689 [label="MONTH <= 8.5\ngini = 0.493\nsamples = 25\nvalue = [11, 14]\nclass = 1", fillcolor="#d5eaf9"] ;
688 -> 689 ;
690 [label="DATE <= 21.0\ngini = 0.488\nsamples = 19\nvalue = [11, 8]\nclass = 0", fillcolor="#f8ddc9"] ;
689 -> 690 ;
691 [label="gini = 0.486\nsamples = 12\nvalue = [5, 7]\nclass = 1", fillcolor="#c6e3f8"] ;
690 -> 691 ;
692 [label="gini = 0.245\nsamples = 7\nvalue = [6, 1]\nclass = 0", fillcolor="#e9965a"] ;
690 -> 692 ;
693 [label="gini = 0.0\nsamples = 6\nvalue = [0, 6]\nclass = 1", fillcolor="#399de5"] ;
689 -> 693 ;
694 [label="LAT <= 991.5\ngini = 0.32\nsamples = 65\nvalue = [52, 13]\nclass = 0", fillcolor="#eca06a"] ;
688 -> 694 ;
695 [label="MONTH <= 10.5\ngini = 0.274\nsamples = 61\nvalue = [51, 10]\nclass = 0", fillcolor="#ea9a60"] ;
694 -> 695 ;
696 [label="gini = 0.238\nsamples = 58\nvalue = [50, 8]\nclass = 0", fillcolor="#e99559"] ;
695 -> 696 ;
697 [label="gini = 0.444\nsamples = 3\nvalue = [1, 2]\nclass = 1", fillcolor="#9ccef2"] ;
695 -> 697 ;
698 [label="LONG <= 26.5\ngini = 0.375\nsamples = 4\nvalue = [1, 3]\nclass = 1", fillcolor="#7bbeee"] ;
694 -> 698 ;
699 [label="gini = 0.0\nsamples = 3\nvalue = [0, 3]\nclass = 1", fillcolor="#399de5"] ;
698 -> 699 ;
700 [label="gini = 0.0\nsamples = 1\nvalue = [1, 0]\nclass = 0", fillcolor="#e58139"] ;
698 -> 700 ;
701 [label="YEAR <= 2000.5\ngini = 0.49\nsamples = 367\nvalue = [209, 158]\nclass = 0", fillcolor="#f9e0cf"] ;
671 -> 701 ;
702 [label="LAT <= 922.5\ngini = 0.418\nsamples = 47\nvalue = [14, 33]\nclass = 1", fillcolor="#8dc7f0"] ;
701 -> 702 ;
703 [label="gini = 0.0\nsamples = 2\nvalue = [2, 0]\nclass = 0", fillcolor="#e58139"] ;
702 -> 703 ;
704 [label="DATE <= 6.5\ngini = 0.391\nsamples = 45\nvalue = [12, 33]\nclass = 1", fillcolor="#81c1ee"] ;
702 -> 704 ;
705 [label="DATE <= 5.5\ngini = 0.497\nsamples = 13\nvalue = [6, 7]\nclass = 1", fillcolor="#e3f1fb"] ;
704 -> 705 ;
706 [label="gini = 0.219\nsamples = 8\nvalue = [1, 7]\nclass = 1", fillcolor="#55abe9"] ;
705 -> 706 ;
707 [label="gini = 0.0\nsamples = 5\nvalue = [5, 0]\nclass = 0", fillcolor="#e58139"] ;
705 -> 707 ;
708 [label="LONG <= 96.0\ngini = 0.305\nsamples = 32\nvalue = [6, 26]\nclass = 1", fillcolor="#67b4eb"] ;
704 -> 708 ;
709 [label="gini = 0.444\nsamples = 3\nvalue = [2, 1]\nclass = 0", fillcolor="#f2c09c"] ;
708 -> 709 ;
710 [label="gini = 0.238\nsamples = 29\nvalue = [4, 25]\nclass = 1", fillcolor="#59ade9"] ;
708 -> 710 ;
711 [label="LAT <= 939.5\ngini = 0.476\nsamples = 320\nvalue = [195, 125]\nclass = 0", fillcolor="#f6d2b8"] ;
701 -> 711 ;
712 [label="LONG <= 107.5\ngini = 0.454\nsamples = 258\nvalue = [168, 90]\nclass = 0", fillcolor="#f3c4a3"] ;
711 -> 712 ;
713 [label="MONTH <= 8.5\ngini = 0.438\nsamples = 232\nvalue = [157, 75]\nclass = 0", fillcolor="#f1bd98"] ;
712 -> 713 ;
714 [label="gini = 0.417\nsamples = 206\nvalue = [145, 61]\nclass = 0", fillcolor="#f0b68c"] ;
713 -> 714 ;
715 [label="gini = 0.497\nsamples = 26\nvalue = [12, 14]\nclass = 1", fillcolor="#e3f1fb"] ;
713 -> 715 ;
716 [label="DATE <= 14.0\ngini = 0.488\nsamples = 26\nvalue = [11, 15]\nclass = 1", fillcolor="#cae5f8"] ;
712 -> 716 ;
717 [label="gini = 0.355\nsamples = 13\nvalue = [3, 10]\nclass = 1", fillcolor="#74baed"] ;
716 -> 717 ;
718 [label="gini = 0.473\nsamples = 13\nvalue = [8, 5]\nclass = 0", fillcolor="#f5d0b5"] ;
716 -> 718 ;
719 [label="YEAR <= 2005.5\ngini = 0.492\nsamples = 62\nvalue = [27, 35]\nclass = 1", fillcolor="#d2e9f9"] ;
711 -> 719 ;
720 [label="LONG <= 107.5\ngini = 0.32\nsamples = 15\nvalue = [12, 3]\nclass = 0", fillcolor="#eca06a"] ;
719 -> 720 ;
721 [label="gini = 0.245\nsamples = 14\nvalue = [12, 2]\nclass = 0", fillcolor="#e9965a"] ;
720 -> 721 ;
722 [label="gini = 0.0\nsamples = 1\nvalue = [0, 1]\nclass = 1", fillcolor="#399de5"] ;
720 -> 722 ;
723 [label="LONG <= 102.5\ngini = 0.435\nsamples = 47\nvalue = [15, 32]\nclass = 1", fillcolor="#96cbf1"] ;
719 -> 723 ;
724 [label="gini = 0.0\nsamples = 3\nvalue = [3, 0]\nclass = 0", fillcolor="#e58139"] ;
723 -> 724 ;
725 [label="gini = 0.397\nsamples = 44\nvalue = [12, 32]\nclass = 1", fillcolor="#83c2ef"] ;
723 -> 725 ;
726 [label="DATE <= 27.5\ngini = 0.362\nsamples = 645\nvalue = [153, 492]\nclass = 1", fillcolor="#77bbed"] ;
670 -> 726 ;
727 [label="DATE <= 25.5\ngini = 0.27\nsamples = 416\nvalue = [67, 349]\nclass = 1", fillcolor="#5fb0ea"] ;
726 -> 727 ;
728 [label="DATE <= 10.5\ngini = 0.496\nsamples = 66\nvalue = [30, 36]\nclass = 1", fillcolor="#deeffb"] ;
727 -> 728 ;
729 [label="LONG <= 52.0\ngini = 0.375\nsamples = 20\nvalue = [5, 15]\nclass = 1", fillcolor="#7bbeee"] ;
728 -> 729 ;
730 [label="LAT <= 962.5\ngini = 0.133\nsamples = 14\nvalue = [1, 13]\nclass = 1", fillcolor="#48a5e7"] ;
729 -> 730 ;
731 [label="gini = 0.0\nsamples = 11\nvalue = [0, 11]\nclass = 1", fillcolor="#399de5"] ;
730 -> 731 ;
732 [label="gini = 0.444\nsamples = 3\nvalue = [1, 2]\nclass = 1", fillcolor="#9ccef2"] ;
730 -> 732 ;
733 [label="YEAR <= 2006.0\ngini = 0.444\nsamples = 6\nvalue = [4, 2]\nclass = 0", fillcolor="#f2c09c"] ;
729 -> 733 ;
734 [label="gini = 0.32\nsamples = 5\nvalue = [4, 1]\nclass = 0", fillcolor="#eca06a"] ;
733 -> 734 ;
735 [label="gini = 0.0\nsamples = 1\nvalue = [0, 1]\nclass = 1", fillcolor="#399de5"] ;
733 -> 735 ;
736 [label="LONG <= 22.5\ngini = 0.496\nsamples = 46\nvalue = [25, 21]\nclass = 0", fillcolor="#fbebdf"] ;
728 -> 736 ;
737 [label="YEAR <= 2007.5\ngini = 0.278\nsamples = 6\nvalue = [1, 5]\nclass = 1", fillcolor="#61b1ea"] ;
736 -> 737 ;
738 [label="gini = 0.0\nsamples = 5\nvalue = [0, 5]\nclass = 1", fillcolor="#399de5"] ;
737 -> 738 ;
739 [label="gini = 0.0\nsamples = 1\nvalue = [1, 0]\nclass = 0", fillcolor="#e58139"] ;
737 -> 739 ;
740 [label="LONG <= 28.5\ngini = 0.48\nsamples = 40\nvalue = [24, 16]\nclass = 0", fillcolor="#f6d5bd"] ;
736 -> 740 ;
741 [label="gini = 0.198\nsamples = 9\nvalue = [8, 1]\nclass = 0", fillcolor="#e89152"] ;
740 -> 741 ;
742 [label="gini = 0.499\nsamples = 31\nvalue = [16, 15]\nclass = 0", fillcolor="#fdf7f3"] ;
740 -> 742 ;
743 [label="LONG <= 107.5\ngini = 0.189\nsamples = 350\nvalue = [37, 313]\nclass = 1", fillcolor="#50a9e8"] ;
727 -> 743 ;
744 [label="LAT <= 965.5\ngini = 0.185\nsamples = 349\nvalue = [36, 313]\nclass = 1", fillcolor="#50a8e8"] ;
743 -> 744 ;
745 [label="YEAR <= 2003.0\ngini = 0.174\nsamples = 342\nvalue = [33, 309]\nclass = 1", fillcolor="#4ea7e8"] ;
744 -> 745 ;
746 [label="gini = 0.5\nsamples = 4\nvalue = [2, 2]\nclass = 0", fillcolor="#ffffff"] ;
745 -> 746 ;
747 [label="gini = 0.167\nsamples = 338\nvalue = [31, 307]\nclass = 1", fillcolor="#4da7e8"] ;
745 -> 747 ;
748 [label="LONG <= 35.0\ngini = 0.49\nsamples = 7\nvalue = [3, 4]\nclass = 1", fillcolor="#cee6f8"] ;
744 -> 748 ;
749 [label="gini = 0.0\nsamples = 2\nvalue = [2, 0]\nclass = 0", fillcolor="#e58139"] ;
748 -> 749 ;
750 [label="gini = 0.32\nsamples = 5\nvalue = [1, 4]\nclass = 1", fillcolor="#6ab6ec"] ;
748 -> 750 ;
751 [label="gini = 0.0\nsamples = 1\nvalue = [1, 0]\nclass = 0", fillcolor="#e58139"] ;
743 -> 751 ;
752 [label="LAT <= 935.5\ngini = 0.469\nsamples = 229\nvalue = [86, 143]\nclass = 1", fillcolor="#b0d8f5"] ;
726 -> 752 ;
753 [label="LONG <= 93.5\ngini = 0.5\nsamples = 94\nvalue = [46, 48]\nclass = 1", fillcolor="#f7fbfe"] ;
752 -> 753 ;
754 [label="LONG <= 55.0\ngini = 0.494\nsamples = 81\nvalue = [36, 45]\nclass = 1", fillcolor="#d7ebfa"] ;
753 -> 754 ;
755 [label="LONG <= 26.0\ngini = 0.444\nsamples = 12\nvalue = [8, 4]\nclass = 0", fillcolor="#f2c09c"] ;
754 -> 755 ;
756 [label="gini = 0.0\nsamples = 1\nvalue = [0, 1]\nclass = 1", fillcolor="#399de5"] ;
755 -> 756 ;
757 [label="gini = 0.397\nsamples = 11\nvalue = [8, 3]\nclass = 0", fillcolor="#efb083"] ;
755 -> 757 ;
758 [label="YEAR <= 2005.5\ngini = 0.482\nsamples = 69\nvalue = [28, 41]\nclass = 1", fillcolor="#c0e0f7"] ;
754 -> 758 ;
759 [label="gini = 0.479\nsamples = 68\nvalue = [27, 41]\nclass = 1", fillcolor="#bbdef6"] ;
758 -> 759 ;
760 [label="gini = 0.0\nsamples = 1\nvalue = [1, 0]\nclass = 0", fillcolor="#e58139"] ;
758 -> 760 ;
761 [label="LAT <= 923.0\ngini = 0.355\nsamples = 13\nvalue = [10, 3]\nclass = 0", fillcolor="#eda774"] ;
753 -> 761 ;
762 [label="gini = 0.0\nsamples = 3\nvalue = [0, 3]\nclass = 1", fillcolor="#399de5"] ;
761 -> 762 ;
763 [label="gini = 0.0\nsamples = 10\nvalue = [10, 0]\nclass = 0", fillcolor="#e58139"] ;
761 -> 763 ;
764 [label="LONG <= 78.5\ngini = 0.417\nsamples = 135\nvalue = [40, 95]\nclass = 1", fillcolor="#8cc6f0"] ;
752 -> 764 ;
765 [label="LAT <= 952.5\ngini = 0.462\nsamples = 102\nvalue = [37, 65]\nclass = 1", fillcolor="#aad5f4"] ;
764 -> 765 ;
766 [label="LONG <= 56.0\ngini = 0.421\nsamples = 73\nvalue = [22, 51]\nclass = 1", fillcolor="#8ec7f0"] ;
765 -> 766 ;
767 [label="gini = 0.315\nsamples = 46\nvalue = [9, 37]\nclass = 1", fillcolor="#69b5eb"] ;
766 -> 767 ;
768 [label="gini = 0.499\nsamples = 27\nvalue = [13, 14]\nclass = 1", fillcolor="#f1f8fd"] ;
766 -> 768 ;
769 [label="LONG <= 25.5\ngini = 0.499\nsamples = 29\nvalue = [15, 14]\nclass = 0", fillcolor="#fdf7f2"] ;
765 -> 769 ;
770 [label="gini = 0.375\nsamples = 8\nvalue = [6, 2]\nclass = 0", fillcolor="#eeab7b"] ;
769 -> 770 ;
771 [label="gini = 0.49\nsamples = 21\nvalue = [9, 12]\nclass = 1", fillcolor="#cee6f8"] ;
769 -> 771 ;
772 [label="LONG <= 88.5\ngini = 0.165\nsamples = 33\nvalue = [3, 30]\nclass = 1", fillcolor="#4da7e8"] ;
764 -> 772 ;
773 [label="gini = 0.0\nsamples = 17\nvalue = [0, 17]\nclass = 1", fillcolor="#399de5"] ;
772 -> 773 ;
774 [label="DATE <= 28.5\ngini = 0.305\nsamples = 16\nvalue = [3, 13]\nclass = 1", fillcolor="#67b4eb"] ;
772 -> 774 ;
775 [label="gini = 0.0\nsamples = 5\nvalue = [0, 5]\nclass = 1", fillcolor="#399de5"] ;
774 -> 775 ;
776 [label="gini = 0.397\nsamples = 11\nvalue = [3, 8]\nclass = 1", fillcolor="#83c2ef"] ;
774 -> 776 ;
777 [label="DEPTH <= 60.5\ngini = 0.323\nsamples = 2035\nvalue = [412, 1623]\nclass = 1", fillcolor="#6bb6ec"] ;
669 -> 777 ;
778 [label="DATE <= 25.5\ngini = 0.261\nsamples = 1500\nvalue = [231, 1269]\nclass = 1", fillcolor="#5dafea"] ;
777 -> 778 ;
779 [label="LAT <= 296.0\ngini = 0.312\nsamples = 952\nvalue = [184, 768]\nclass = 1", fillcolor="#68b4eb"] ;
778 -> 779 ;
780 [label="DATE <= 15.0\ngini = 0.499\nsamples = 23\nvalue = [12, 11]\nclass = 0", fillcolor="#fdf5ef"] ;
779 -> 780 ;
781 [label="DATE <= 3.5\ngini = 0.375\nsamples = 16\nvalue = [12, 4]\nclass = 0", fillcolor="#eeab7b"] ;
780 -> 781 ;
782 [label="YEAR <= 2007.5\ngini = 0.32\nsamples = 5\nvalue = [1, 4]\nclass = 1", fillcolor="#6ab6ec"] ;
781 -> 782 ;
783 [label="gini = 0.0\nsamples = 4\nvalue = [0, 4]\nclass = 1", fillcolor="#399de5"] ;
782 -> 783 ;
784 [label="gini = 0.0\nsamples = 1\nvalue = [1, 0]\nclass = 0", fillcolor="#e58139"] ;
782 -> 784 ;
785 [label="gini = 0.0\nsamples = 11\nvalue = [11, 0]\nclass = 0", fillcolor="#e58139"] ;
781 -> 785 ;
786 [label="gini = 0.0\nsamples = 7\nvalue = [0, 7]\nclass = 1", fillcolor="#399de5"] ;
780 -> 786 ;
787 [label="YEAR <= 2006.5\ngini = 0.302\nsamples = 929\nvalue = [172, 757]\nclass = 1", fillcolor="#66b3eb"] ;
779 -> 787 ;
788 [label="YEAR <= 2004.5\ngini = 0.278\nsamples = 766\nvalue = [128, 638]\nclass = 1", fillcolor="#61b1ea"] ;
787 -> 788 ;
789 [label="LONG <= 30.5\ngini = 0.337\nsamples = 317\nvalue = [68, 249]\nclass = 1", fillcolor="#6fb8ec"] ;
788 -> 789 ;
790 [label="gini = 0.133\nsamples = 56\nvalue = [4, 52]\nclass = 1", fillcolor="#48a5e7"] ;
789 -> 790 ;
791 [label="gini = 0.37\nsamples = 261\nvalue = [64, 197]\nclass = 1", fillcolor="#79bded"] ;
789 -> 791 ;
792 [label="LAT <= 919.5\ngini = 0.232\nsamples = 449\nvalue = [60, 389]\nclass = 1", fillcolor="#58ace9"] ;
788 -> 792 ;
793 [label="gini = 0.387\nsamples = 61\nvalue = [16, 45]\nclass = 1", fillcolor="#7fc0ee"] ;
792 -> 793 ;
794 [label="gini = 0.201\nsamples = 388\nvalue = [44, 344]\nclass = 1", fillcolor="#52aae8"] ;
792 -> 794 ;
795 [label="DATE <= 23.5\ngini = 0.394\nsamples = 163\nvalue = [44, 119]\nclass = 1", fillcolor="#82c1ef"] ;
787 -> 795 ;
796 [label="MONTH <= 4.5\ngini = 0.372\nsamples = 154\nvalue = [38, 116]\nclass = 1", fillcolor="#7abdee"] ;
795 -> 796 ;
797 [label="gini = 0.444\nsamples = 66\nvalue = [22, 44]\nclass = 1", fillcolor="#9ccef2"] ;
796 -> 797 ;
798 [label="gini = 0.298\nsamples = 88\nvalue = [16, 72]\nclass = 1", fillcolor="#65b3eb"] ;
796 -> 798 ;
799 [label="LAT <= 960.5\ngini = 0.444\nsamples = 9\nvalue = [6, 3]\nclass = 0", fillcolor="#f2c09c"] ;
795 -> 799 ;
800 [label="gini = 0.245\nsamples = 7\nvalue = [6, 1]\nclass = 0", fillcolor="#e9965a"] ;
799 -> 800 ;
801 [label="gini = 0.0\nsamples = 2\nvalue = [0, 2]\nclass = 1", fillcolor="#399de5"] ;
799 -> 801 ;
802 [label="LAT <= 917.5\ngini = 0.157\nsamples = 548\nvalue = [47, 501]\nclass = 1", fillcolor="#4ca6e7"] ;
778 -> 802 ;
803 [label="DATE <= 30.5\ngini = 0.375\nsamples = 60\nvalue = [15, 45]\nclass = 1", fillcolor="#7bbeee"] ;
802 -> 803 ;
804 [label="DEPTH <= 32.5\ngini = 0.316\nsamples = 56\nvalue = [11, 45]\nclass = 1", fillcolor="#69b5eb"] ;
803 -> 804 ;
805 [label="LAT <= 611.5\ngini = 0.245\nsamples = 42\nvalue = [6, 36]\nclass = 1", fillcolor="#5aade9"] ;
804 -> 805 ;
806 [label="gini = 0.48\nsamples = 5\nvalue = [2, 3]\nclass = 1", fillcolor="#bddef6"] ;
805 -> 806 ;
807 [label="gini = 0.193\nsamples = 37\nvalue = [4, 33]\nclass = 1", fillcolor="#51a9e8"] ;
805 -> 807 ;
808 [label="YEAR <= 1995.0\ngini = 0.459\nsamples = 14\nvalue = [5, 9]\nclass = 1", fillcolor="#a7d3f3"] ;
804 -> 808 ;
809 [label="gini = 0.0\nsamples = 4\nvalue = [0, 4]\nclass = 1", fillcolor="#399de5"] ;
808 -> 809 ;
810 [label="gini = 0.5\nsamples = 10\nvalue = [5, 5]\nclass = 0", fillcolor="#ffffff"] ;
808 -> 810 ;
811 [label="gini = 0.0\nsamples = 4\nvalue = [4, 0]\nclass = 0", fillcolor="#e58139"] ;
803 -> 811 ;
812 [label="YEAR <= 2005.5\ngini = 0.123\nsamples = 488\nvalue = [32, 456]\nclass = 1", fillcolor="#47a4e7"] ;
802 -> 812 ;
813 [label="YEAR <= 2003.5\ngini = 0.087\nsamples = 437\nvalue = [20, 417]\nclass = 1", fillcolor="#42a2e6"] ;
812 -> 813 ;
814 [label="DEPTH <= 57.0\ngini = 0.307\nsamples = 58\nvalue = [11, 47]\nclass = 1", fillcolor="#67b4eb"] ;
813 -> 814 ;
815 [label="gini = 0.27\nsamples = 56\nvalue = [9, 47]\nclass = 1", fillcolor="#5fb0ea"] ;
814 -> 815 ;
816 [label="gini = 0.0\nsamples = 2\nvalue = [2, 0]\nclass = 0", fillcolor="#e58139"] ;
814 -> 816 ;
817 [label="LAT <= 973.0\ngini = 0.046\nsamples = 379\nvalue = [9, 370]\nclass = 1", fillcolor="#3e9fe6"] ;
813 -> 817 ;
818 [label="gini = 0.042\nsamples = 376\nvalue = [8, 368]\nclass = 1", fillcolor="#3d9fe6"] ;
817 -> 818 ;
819 [label="gini = 0.444\nsamples = 3\nvalue = [1, 2]\nclass = 1", fillcolor="#9ccef2"] ;
817 -> 819 ;
820 [label="DATE <= 28.5\ngini = 0.36\nsamples = 51\nvalue = [12, 39]\nclass = 1", fillcolor="#76bbed"] ;
812 -> 820 ;
821 [label="LAT <= 982.0\ngini = 0.211\nsamples = 25\nvalue = [3, 22]\nclass = 1", fillcolor="#54aae9"] ;
820 -> 821 ;
822 [label="gini = 0.153\nsamples = 24\nvalue = [2, 22]\nclass = 1", fillcolor="#4ba6e7"] ;
821 -> 822 ;
823 [label="gini = 0.0\nsamples = 1\nvalue = [1, 0]\nclass = 0", fillcolor="#e58139"] ;
821 -> 823 ;
824 [label="DEPTH <= 11.5\ngini = 0.453\nsamples = 26\nvalue = [9, 17]\nclass = 1", fillcolor="#a2d1f3"] ;
820 -> 824 ;
825 [label="gini = 0.0\nsamples = 2\nvalue = [2, 0]\nclass = 0", fillcolor="#e58139"] ;
824 -> 825 ;
826 [label="gini = 0.413\nsamples = 24\nvalue = [7, 17]\nclass = 1", fillcolor="#8bc5f0"] ;
824 -> 826 ;
827 [label="YEAR <= 1996.5\ngini = 0.448\nsamples = 535\nvalue = [181, 354]\nclass = 1", fillcolor="#9ecff2"] ;
777 -> 827 ;
828 [label="YEAR <= 1987.5\ngini = 0.324\nsamples = 123\nvalue = [25, 98]\nclass = 1", fillcolor="#6cb6ec"] ;
827 -> 828 ;
829 [label="LONG <= 40.5\ngini = 0.444\nsamples = 12\nvalue = [8, 4]\nclass = 0", fillcolor="#f2c09c"] ;
828 -> 829 ;
830 [label="MONTH <= 6.5\ngini = 0.48\nsamples = 5\nvalue = [2, 3]\nclass = 1", fillcolor="#bddef6"] ;
829 -> 830 ;
831 [label="DATE <= 11.0\ngini = 0.444\nsamples = 3\nvalue = [2, 1]\nclass = 0", fillcolor="#f2c09c"] ;
830 -> 831 ;
832 [label="gini = 0.0\nsamples = 1\nvalue = [1, 0]\nclass = 0", fillcolor="#e58139"] ;
831 -> 832 ;
833 [label="gini = 0.5\nsamples = 2\nvalue = [1, 1]\nclass = 0", fillcolor="#ffffff"] ;
831 -> 833 ;
834 [label="gini = 0.0\nsamples = 2\nvalue = [0, 2]\nclass = 1", fillcolor="#399de5"] ;
830 -> 834 ;
835 [label="DATE <= 4.5\ngini = 0.245\nsamples = 7\nvalue = [6, 1]\nclass = 0", fillcolor="#e9965a"] ;
829 -> 835 ;
836 [label="gini = 0.0\nsamples = 1\nvalue = [0, 1]\nclass = 1", fillcolor="#399de5"] ;
835 -> 836 ;
837 [label="gini = 0.0\nsamples = 6\nvalue = [6, 0]\nclass = 0", fillcolor="#e58139"] ;
835 -> 837 ;
838 [label="LONG <= 68.5\ngini = 0.259\nsamples = 111\nvalue = [17, 94]\nclass = 1", fillcolor="#5dafea"] ;
828 -> 838 ;
839 [label="DATE <= 16.5\ngini = 0.165\nsamples = 77\nvalue = [7, 70]\nclass = 1", fillcolor="#4da7e8"] ;
838 -> 839 ;
840 [label="gini = 0.0\nsamples = 33\nvalue = [0, 33]\nclass = 1", fillcolor="#399de5"] ;
839 -> 840 ;
841 [label="DATE <= 17.5\ngini = 0.268\nsamples = 44\nvalue = [7, 37]\nclass = 1", fillcolor="#5eb0ea"] ;
839 -> 841 ;
842 [label="gini = 0.0\nsamples = 2\nvalue = [2, 0]\nclass = 0", fillcolor="#e58139"] ;
841 -> 842 ;
843 [label="gini = 0.21\nsamples = 42\nvalue = [5, 37]\nclass = 1", fillcolor="#54aae9"] ;
841 -> 843 ;
844 [label="DATE <= 15.0\ngini = 0.415\nsamples = 34\nvalue = [10, 24]\nclass = 1", fillcolor="#8bc6f0"] ;
838 -> 844 ;
845 [label="DATE <= 11.5\ngini = 0.5\nsamples = 16\nvalue = [8, 8]\nclass = 0", fillcolor="#ffffff"] ;
844 -> 845 ;
846 [label="gini = 0.444\nsamples = 12\nvalue = [4, 8]\nclass = 1", fillcolor="#9ccef2"] ;
845 -> 846 ;
847 [label="gini = 0.0\nsamples = 4\nvalue = [4, 0]\nclass = 0", fillcolor="#e58139"] ;
845 -> 847 ;
848 [label="LAT <= 944.5\ngini = 0.198\nsamples = 18\nvalue = [2, 16]\nclass = 1", fillcolor="#52a9e8"] ;
844 -> 848 ;
849 [label="gini = 0.0\nsamples = 15\nvalue = [0, 15]\nclass = 1", fillcolor="#399de5"] ;
848 -> 849 ;
850 [label="gini = 0.444\nsamples = 3\nvalue = [2, 1]\nclass = 0", fillcolor="#f2c09c"] ;
848 -> 850 ;
851 [label="DEPTH <= 140.5\ngini = 0.471\nsamples = 412\nvalue = [156, 256]\nclass = 1", fillcolor="#b2d9f5"] ;
827 -> 851 ;
852 [label="LONG <= 97.5\ngini = 0.443\nsamples = 314\nvalue = [104, 210]\nclass = 1", fillcolor="#9bcef2"] ;
851 -> 852 ;
853 [label="LAT <= 960.5\ngini = 0.422\nsamples = 281\nvalue = [85, 196]\nclass = 1", fillcolor="#8fc8f0"] ;
852 -> 853 ;
854 [label="LONG <= 52.5\ngini = 0.388\nsamples = 194\nvalue = [51, 143]\nclass = 1", fillcolor="#80c0ee"] ;
853 -> 854 ;
855 [label="gini = 0.242\nsamples = 78\nvalue = [11, 67]\nclass = 1", fillcolor="#5aade9"] ;
854 -> 855 ;
856 [label="gini = 0.452\nsamples = 116\nvalue = [40, 76]\nclass = 1", fillcolor="#a1d1f3"] ;
854 -> 856 ;
857 [label="MONTH <= 9.5\ngini = 0.476\nsamples = 87\nvalue = [34, 53]\nclass = 1", fillcolor="#b8dcf6"] ;
853 -> 857 ;
858 [label="gini = 0.5\nsamples = 68\nvalue = [33, 35]\nclass = 1", fillcolor="#f4f9fe"] ;
857 -> 858 ;
859 [label="gini = 0.1\nsamples = 19\nvalue = [1, 18]\nclass = 1", fillcolor="#44a2e6"] ;
857 -> 859 ;
860 [label="DEPTH <= 63.5\ngini = 0.489\nsamples = 33\nvalue = [19, 14]\nclass = 0", fillcolor="#f8decb"] ;
852 -> 860 ;
861 [label="gini = 0.0\nsamples = 5\nvalue = [5, 0]\nclass = 0", fillcolor="#e58139"] ;
860 -> 861 ;
862 [label="MONTH <= 5.5\ngini = 0.5\nsamples = 28\nvalue = [14, 14]\nclass = 0", fillcolor="#ffffff"] ;
860 -> 862 ;
863 [label="gini = 0.32\nsamples = 10\nvalue = [2, 8]\nclass = 1", fillcolor="#6ab6ec"] ;
862 -> 863 ;
864 [label="gini = 0.444\nsamples = 18\nvalue = [12, 6]\nclass = 0", fillcolor="#f2c09c"] ;
862 -> 864 ;
865 [label="YEAR <= 2007.5\ngini = 0.498\nsamples = 98\nvalue = [52, 46]\nclass = 0", fillcolor="#fcf0e8"] ;
851 -> 865 ;
866 [label="LAT <= 950.5\ngini = 0.48\nsamples = 85\nvalue = [51, 34]\nclass = 0", fillcolor="#f6d5bd"] ;
865 -> 866 ;
867 [label="LONG <= 104.5\ngini = 0.266\nsamples = 19\nvalue = [16, 3]\nclass = 0", fillcolor="#ea995e"] ;
866 -> 867 ;
868 [label="gini = 0.111\nsamples = 17\nvalue = [16, 1]\nclass = 0", fillcolor="#e78945"] ;
867 -> 868 ;
869 [label="gini = 0.0\nsamples = 2\nvalue = [0, 2]\nclass = 1", fillcolor="#399de5"] ;
867 -> 869 ;
870 [label="DEPTH <= 215.0\ngini = 0.498\nsamples = 66\nvalue = [35, 31]\nclass = 0", fillcolor="#fcf1e8"] ;
866 -> 870 ;
871 [label="gini = 0.499\nsamples = 55\nvalue = [26, 29]\nclass = 1", fillcolor="#ebf5fc"] ;
870 -> 871 ;
872 [label="gini = 0.298\nsamples = 11\nvalue = [9, 2]\nclass = 0", fillcolor="#eb9d65"] ;
870 -> 872 ;
873 [label="DATE <= 2.5\ngini = 0.142\nsamples = 13\nvalue = [1, 12]\nclass = 1", fillcolor="#49a5e7"] ;
865 -> 873 ;
874 [label="gini = 0.0\nsamples = 1\nvalue = [1, 0]\nclass = 0", fillcolor="#e58139"] ;
873 -> 874 ;
875 [label="gini = 0.0\nsamples = 12\nvalue = [0, 12]\nclass = 1", fillcolor="#399de5"] ;
873 -> 875 ;
876 [label="YEAR <= 1995.5\ngini = 0.495\nsamples = 18904\nvalue = [10382, 8522]\nclass = 0", fillcolor="#fae8dc"] ;
668 -> 876 ;
877 [label="LAT <= 661.0\ngini = 0.479\nsamples = 4072\nvalue = [1622, 2450]\nclass = 1", fillcolor="#bcdef6"] ;
876 -> 877 ;
878 [label="LAT <= 295.5\ngini = 0.381\nsamples = 1744\nvalue = [447, 1297]\nclass = 1", fillcolor="#7dbfee"] ;
877 -> 878 ;
879 [label="YEAR <= 1991.5\ngini = 0.421\nsamples = 1011\nvalue = [304, 707]\nclass = 1", fillcolor="#8ec7f0"] ;
878 -> 879 ;
880 [label="MONTH <= 7.5\ngini = 0.358\nsamples = 488\nvalue = [114, 374]\nclass = 1", fillcolor="#75bbed"] ;
879 -> 880 ;
881 [label="DEPTH <= 137.0\ngini = 0.406\nsamples = 293\nvalue = [83, 210]\nclass = 1", fillcolor="#87c4ef"] ;
880 -> 881 ;
882 [label="LONG <= 687.0\ngini = 0.393\nsamples = 286\nvalue = [77, 209]\nclass = 1", fillcolor="#82c1ef"] ;
881 -> 882 ;
883 [label="gini = 0.48\nsamples = 10\nvalue = [6, 4]\nclass = 0", fillcolor="#f6d5bd"] ;
882 -> 883 ;
884 [label="gini = 0.382\nsamples = 276\nvalue = [71, 205]\nclass = 1", fillcolor="#7ebfee"] ;
882 -> 884 ;
885 [label="YEAR <= 1989.5\ngini = 0.245\nsamples = 7\nvalue = [6, 1]\nclass = 0", fillcolor="#e9965a"] ;
881 -> 885 ;
886 [label="gini = 0.0\nsamples = 1\nvalue = [0, 1]\nclass = 1", fillcolor="#399de5"] ;
885 -> 886 ;
887 [label="gini = 0.0\nsamples = 6\nvalue = [6, 0]\nclass = 0", fillcolor="#e58139"] ;
885 -> 887 ;
888 [label="LONG <= 965.5\ngini = 0.267\nsamples = 195\nvalue = [31, 164]\nclass = 1", fillcolor="#5eb0ea"] ;
880 -> 888 ;
889 [label="DEPTH <= 170.0\ngini = 0.215\nsamples = 171\nvalue = [21, 150]\nclass = 1", fillcolor="#55abe9"] ;
888 -> 889 ;
890 [label="gini = 0.208\nsamples = 170\nvalue = [20, 150]\nclass = 1", fillcolor="#53aae8"] ;
889 -> 890 ;
891 [label="gini = 0.0\nsamples = 1\nvalue = [1, 0]\nclass = 0", fillcolor="#e58139"] ;
889 -> 891 ;
892 [label="DEPTH <= 32.5\ngini = 0.486\nsamples = 24\nvalue = [10, 14]\nclass = 1", fillcolor="#c6e3f8"] ;
888 -> 892 ;
893 [label="gini = 0.198\nsamples = 9\nvalue = [1, 8]\nclass = 1", fillcolor="#52a9e8"] ;
892 -> 893 ;
894 [label="gini = 0.48\nsamples = 15\nvalue = [9, 6]\nclass = 0", fillcolor="#f6d5bd"] ;
892 -> 894 ;
